{"learner":{"attributes":{"scikit_learn":"{\"_estimator_type\": \"regressor\"}"},"feature_names":["Ram","Weight","Touchscreen","IPS","ppi","HDD","SSD","Company_Acer","Company_Apple","Company_Asus","Company_Chuwi","Company_Dell","Company_Fujitsu","Company_Google","Company_HP","Company_Huawei","Company_LG","Company_Lenovo","Company_MSI","Company_Mediacom","Company_Microsoft","Company_Razer","Company_Samsung","Company_Toshiba","Company_Vero","Company_Xiaomi","TypeName_2 in 1 Convertible","TypeName_Gaming","TypeName_Netbook","TypeName_Notebook","TypeName_Ultrabook","TypeName_Workstation","Cpu_Brand_AMD Processors","Cpu_Brand_Intel Core i3","Cpu_Brand_Intel Core i5","Cpu_Brand_Intel Core i7","Cpu_Brand_Other Intel Processors","Gpu_brand_AMD","Gpu_brand_Intel","Gpu_brand_Nvidia","os_Mac","os_Others/No OS/Linux","os_Windows"],"feature_types":["int","float","int","int","float","int","int","int","int","int","int","int","int","int","int","int","int","int","int","int","int","int","int","int","int","int","int","int","int","int","int","int","int","int","int","int","int","int","int","int","int","int","int"],"gradient_booster":{"model":{"gbtree_model_param":{"num_parallel_tree":"1","num_trees":"45"},"iteration_indptr":[0,1,2,3,4,5,6,7,8,9,10,11,12,13,14,15,16,17,18,19,20,21,22,23,24,25,26,27,28,29,30,31,32,33,34,35,36,37,38,39,40,41,42,43,44,45],"tree_info":[0,0,0,0,0,0,0,0,0,0,0,0,0,0,0,0,0,0,0,0,0,0,0,0,0,0,0,0,0,0,0,0,0,0,0,0,0,0,0,0,0,0,0,0,0],"trees":[{"base_weights":[3.4350354E-8,-6.007804E-1,3.042469E-1,-7.785258E-1,-2.1323243E-1,5.157789E-1,-1.755335E-2,-6.11672E-1,-1.032028E0,2.4693248E-1,-2.9168162E-1,3.6058304E-1,7.538798E-1,-3.9949402E-1,8.231202E-2,-6.62544E-1,-1.7769264E-1,-1.0706617E0,-3.9339447E-1,2.900427E-1,-5.0929386E-2,-2.2664058E-1,-2.9221264E-1,4.602409E-1,2.5577235E-1,6.659578E-1,9.687642E-1,-5.307349E-1,-2.3992395E-1,4.957091E-2,6.511505E-1,-1.0437584E-1,-3.4689853E-1,-1.0242996E-1,8.687337E-3,-5.5671346E-1,-3.517331E-1,1.04186535E-2,-2.32953E-1,6.0077123E-2,1.9497558E-1,-7.6342344E-2,3.8145304E-2,-1.4428917E-1,-5.2814417E-2,8.430183E-3,2.4256724E-1,9.644612E-2,3.4193876E-1,3.6987695E-1,2.919005E-1,1.2683392E-2,4.945824E-1,-2.963786E-1,-1.1670371E-1,-1.6733445E-1,-1.795807E-2,-5.4092493E-2,6.0272846E-2,3.884805E-1,1.0264468E-1],"categories":[],"categories_nodes":[],"categories_segments":[],"categories_sizes":[],"default_left":[0,0,0,0,0,0,0,0,0,0,0,0,0,0,0,0,0,0,0,0,0,0,0,0,0,0,0,0,0,0,0,0,0,0,0,0,0,0,0,0,0,0,0,0,0,0,0,0,0,0,0,0,0,0,0,0,0,0,0,0,0],"id":0,"left_children":[1,3,5,7,9,11,13,15,17,19,21,23,25,27,29,31,33,35,37,39,41,43,-1,45,47,49,51,53,55,57,59,-1,-1,-1,-1,-1,-1,-1,-1,-1,-1,-1,-1,-1,-1,-1,-1,-1,-1,-1,-1,-1,-1,-1,-1,-1,-1,-1,-1,-1,-1],"loss_changes":[1.9302158E2,2.4288132E1,4.772686E1,9.64711E0,4.1512756E0,1.5358971E1,1.0674682E1,3.1717987E0,1.9227142E0,2.330668E-1,1.7144594E0,2.5771484E0,2.4910965E0,1.087307E0,4.1023397E0,1.7414322E0,9.364998E-2,6.143341E-1,2.1996415E-1,2.0774531E-1,5.048433E-2,5.766287E-1,0E0,1.4377098E0,3.313757E0,3.017311E-1,8.6021805E-1,4.3331528E-1,5.29184E-1,2.375543E0,5.136261E-1,0E0,0E0,0E0,0E0,0E0,0E0,0E0,0E0,0E0,0E0,0E0,0E0,0E0,0E0,0E0,0E0,0E0,0E0,0E0,0E0,0E0,0E0,0E0,0E0,0E0,0E0,0E0,0E0,0E0,0E0],"parents":[2147483647,0,0,1,1,2,2,3,3,4,4,5,5,6,6,7,7,8,8,9,9,10,10,11,11,12,12,13,13,14,14,15,15,16,16,17,17,18,18,19,19,20,20,21,21,23,23,24,24,25,25,26,26,27,27,28,28,29,29,30,30],"right_children":[2,4,6,8,10,12,14,16,18,20,22,24,26,28,30,32,34,36,38,40,42,44,-1,46,48,50,52,54,56,58,60,-1,-1,-1,-1,-1,-1,-1,-1,-1,-1,-1,-1,-1,-1,-1,-1,-1,-1,-1,-1,-1,-1,-1,-1,-1,-1,-1,-1,-1,-1],"split_conditions":[8E0,1E0,1E0,1E0,1.49E0,1.6E1,1.1782653E2,1E0,1.9494754E2,1E0,1E0,1.55E0,3.42E0,1E0,1.7623257E2,1.64E0,2.38E0,6.4E1,2.0980069E2,1E0,1.34E0,1E0,-2.9221264E-1,1E0,1E0,1E0,8E0,1E0,1.8E2,1.8E2,1E0,-1.0437584E-1,-3.4689853E-1,-1.0242996E-1,8.687337E-3,-5.5671346E-1,-3.517331E-1,1.04186535E-2,-2.32953E-1,6.0077123E-2,1.9497558E-1,-7.6342344E-2,3.8145304E-2,-1.4428917E-1,-5.2814417E-2,8.430183E-3,2.4256724E-1,9.644612E-2,3.4193876E-1,3.6987695E-1,2.919005E-1,1.2683392E-2,4.945824E-1,-2.963786E-1,-1.1670371E-1,-1.6733445E-1,-1.795807E-2,-5.4092493E-2,6.0272846E-2,3.884805E-1,1.0264468E-1],"split_indices":[0,34,29,36,1,0,4,35,4,3,41,1,1,34,4,1,1,6,4,14,1,14,0,38,31,27,6,35,6,6,9,0,0,0,0,0,0,0,0,0,0,0,0,0,0,0,0,0,0,0,0,0,0,0,0,0,0,0,0,0,0],"split_type":[0,0,0,0,0,0,0,0,0,0,0,0,0,0,0,0,0,0,0,0,0,0,0,0,0,0,0,0,0,0,0,0,0,0,0,0,0,0,0,0,0,0,0,0,0,0,0,0,0,0,0,0,0,0,0,0,0,0,0,0,0],"sum_hessian":[1.054E3,3.54E2,7E2,2.42E2,1.12E2,4.22E2,2.78E2,1.48E2,9.4E1,1.6E1,9.6E1,2.57E2,1.65E2,5.7E1,2.21E2,1.32E2,1.6E1,8.8E1,6E0,1.4E1,2E0,8E1,1.6E1,1.3E2,1.27E2,1.2E2,4.5E1,3E1,2.7E1,2.1E2,1.1E1,9E0,1.23E2,1.4E1,2E0,7.7E1,1.1E1,1E0,5E0,6E0,8E0,1E0,1E0,5.2E1,2.8E1,7E0,1.23E2,1.12E2,1.5E1,5.9E1,6.1E1,1E0,4.4E1,2.4E1,6E0,1.8E1,9E0,6.5E1,1.45E2,8E0,3E0],"tree_param":{"num_deleted":"0","num_feature":"43","num_nodes":"61","size_leaf_vector":"1"}},{"base_weights":[-1.8122795E-4,-3.0587906E-1,1.5463033E-1,-2.2388785E-1,-5.279193E-1,7.05165E-2,3.821212E-1,4.0814653E-2,-2.6237908E-1,-5.6868446E-1,-2.5144333E-1,1.8296364E-1,-4.3084595E-2,3.504453E-1,6.63573E-1,2.1393508E-1,-4.023282E-2,-2.2323497E-1,-4.6494663E-1,-6.8231523E-1,-5.06876E-1,-2.8027093E-1,3.0828953E-2,8.1013545E-2,2.546699E-1,1.1332831E-1,-1.0852269E-1,3.159007E-1,4.531146E-1,5.139923E-2,3.4525642E-1,1.2012458E-1,-1.2301445E-2,1.3657838E-2,-7.7924356E-2,-8.557439E-2,-2.0608033E-1,-2.724629E-1,-5.845189E-2,-3.5079503E-1,-5.0111055E-2,-2.6193416E-1,-1.3195674E-2,-1.5311575E-1,7.8139305E-3,6.107272E-3,1.12079814E-1,1.0884054E-1,1.9541523E-1,6.8389684E-2,-1.2351628E-1,-8.348718E-2,4.4450045E-2,1.6557759E-1,7.539503E-2,4.9814384E-2,2.3434375E-1],"categories":[],"categories_nodes":[],"categories_segments":[],"categories_sizes":[],"default_left":[0,0,0,0,0,0,0,0,0,0,0,0,0,0,0,0,0,0,0,0,0,0,0,0,0,0,0,0,0,0,0,0,0,0,0,0,0,0,0,0,0,0,0,0,0,0,0,0,0,0,0,0,0,0,0,0,0],"id":1,"left_children":[1,3,5,7,9,11,13,15,17,19,21,23,25,27,29,31,33,35,37,39,41,43,-1,45,47,49,51,53,55,-1,-1,-1,-1,-1,-1,-1,-1,-1,-1,-1,-1,-1,-1,-1,-1,-1,-1,-1,-1,-1,-1,-1,-1,-1,-1,-1,-1],"loss_changes":[4.9975765E1,6.3447037E0,1.3386782E1,2.6699648E0,9.277115E-1,6.561005E0,1.4524364E0,4.8566025E-1,1.7040949E0,2.300663E-1,1.4364439E-1,1.8654671E0,2.6325514E0,4.6688652E-1,2.0094585E-1,7.4956834E-2,1.9168942E-1,1.82866E0,9.3839884E-1,2.213993E-1,4.5155334E-1,1.04647756E-1,0E0,1.0608792E0,6.7542267E-1,6.76053E-1,2.1035285E0,2.8253078E-1,1.7900181E-1,0E0,0E0,0E0,0E0,0E0,0E0,0E0,0E0,0E0,0E0,0E0,0E0,0E0,0E0,0E0,0E0,0E0,0E0,0E0,0E0,0E0,0E0,0E0,0E0,0E0,0E0,0E0,0E0],"parents":[2147483647,0,0,1,1,2,2,3,3,4,4,5,5,6,6,7,7,8,8,9,9,10,10,11,11,12,12,13,13,14,14,15,15,16,16,17,17,18,18,19,19,20,20,21,21,23,23,24,24,25,25,26,26,27,27,28,28],"right_children":[2,4,6,8,10,12,14,16,18,20,22,24,26,28,30,32,34,36,38,40,42,44,-1,46,48,50,52,54,56,-1,-1,-1,-1,-1,-1,-1,-1,-1,-1,-1,-1,-1,-1,-1,-1,-1,-1,-1,-1,-1,-1,-1,-1,-1,-1,-1,-1],"split_conditions":[8E0,1E0,1.6E1,1.62E0,1E0,1E0,3.2E1,1.29E0,1E0,1.45E0,1E0,1E0,1.91E0,1.8990579E2,1.18E0,1E0,1.5848253E2,1E0,6E0,2.7605353E2,1E0,1E0,3.0828953E-2,1.7623257E2,5.12E2,1E0,1E0,1E0,1.8E2,5.139923E-2,3.4525642E-1,1.2012458E-1,-1.2301445E-2,1.3657838E-2,-7.7924356E-2,-8.557439E-2,-2.0608033E-1,-2.724629E-1,-5.845189E-2,-3.5079503E-1,-5.0111055E-2,-2.6193416E-1,-1.3195674E-2,-1.5311575E-1,7.8139305E-3,6.107272E-3,1.12079814E-1,1.0884054E-1,1.9541523E-1,6.8389684E-2,-1.2351628E-1,-8.348718E-2,4.4450045E-2,1.6557759E-1,7.539503E-2,4.9814384E-2,2.3434375E-1],"split_indices":[0,36,0,1,2,29,0,1,32,1,14,35,1,4,1,8,4,41,0,4,28,20,0,4,6,41,3,37,6,0,0,0,0,0,0,0,0,0,0,0,0,0,0,0,0,0,0,0,0,0,0,0,0,0,0,0,0],"split_type":[0,0,0,0,0,0,0,0,0,0,0,0,0,0,0,0,0,0,0,0,0,0,0,0,0,0,0,0,0,0,0,0,0,0,0,0,0,0,0,0,0,0,0,0,0,0,0,0,0,0,0,0,0,0,0,0,0],"sum_hessian":[1.054E3,3.54E2,7E2,2.6E2,9.4E1,5.12E2,1.88E2,3.3E1,2.27E2,8.1E1,1.3E1,2.57E2,2.55E2,1.71E2,1.7E1,1E1,2.3E1,1.92E2,3.5E1,2.5E1,5.6E1,1.2E1,1E0,1.07E2,1.5E2,7.5E1,1.8E2,1.31E2,4E1,1E0,1.6E1,9E0,1E0,1.5E1,8E0,1.52E2,4E1,2.8E1,7E0,2.4E1,1E0,5.4E1,2E0,1.1E1,1E0,7.3E1,3.4E1,1.2E2,3E1,7.1E1,4E0,1.39E2,4.1E1,1.19E2,1.2E1,2E0,3.8E1],"tree_param":{"num_deleted":"0","num_feature":"43","num_nodes":"57","size_leaf_vector":"1"}},{"base_weights":[-2.0391184E-4,-1.6795136E-1,8.989654E-2,-1.9914581E-1,2.7489827E-3,9.982586E-3,1.5833639E-1,-2.5825775E-1,-1.0110493E-1,-6.260273E-2,1.782099E-1,3.064172E-2,-2.1381184E-1,1.3463588E-1,2.7390277E-1,-2.8617185E-1,-1.133989E-1,-1.7361157E-2,-1.8044555E-1,-8.262339E-2,1.9456625E-1,1.8181644E-1,3.0592823E-2,1.22796856E-1,-4.1143973E-3,3.4791946E-2,-2.5855997E-1,2.1190824E-1,1.0762657E-1,4.2985493E-1,1.6409473E-1,-2.628183E-1,-1.3262318E-1,-9.69719E-2,1.271754E-2,-6.9762945E-2,6.770859E-3,-1.1139233E-1,-5.0403845E-2,-5.353372E-2,1.354192E-1,2.8701412E-2,-5.2674294E-2,7.968645E-2,-7.458635E-2,-5.7773567E-3,2.6027966E-1,4.7683716E-2,-5.18775E-2,-6.805229E-2,-1.7114343E-1,8.9954294E-2,1.6822307E-1,6.0428735E-2,-1.1780241E-2,1.0204973E-1,2.3156847E-1,6.64466E-2,1.9804215E-1],"categories":[],"categories_nodes":[],"categories_segments":[],"categories_sizes":[],"default_left":[0,0,0,0,0,0,0,0,0,0,0,0,0,0,0,0,0,0,0,0,0,0,0,0,0,0,0,0,0,0,0,0,0,0,0,0,0,0,0,0,0,0,0,0,0,0,0,0,0,0,0,0,0,0,0,0,0,0,0],"id":2,"left_children":[1,3,5,7,9,11,13,15,17,19,21,23,25,27,29,31,33,35,37,39,-1,-1,41,43,45,47,49,51,53,55,57,-1,-1,-1,-1,-1,-1,-1,-1,-1,-1,-1,-1,-1,-1,-1,-1,-1,-1,-1,-1,-1,-1,-1,-1,-1,-1,-1,-1],"loss_changes":[1.5960495E1,1.9654379E0,3.755828E0,1.7820492E0,6.7622346E-1,1.4767925E0,9.765463E-1,7.520075E-1,7.8753686E-1,4.21045E-1,4.2682093E-1,9.35768E-1,3.0935884E-1,6.2209845E-1,9.912009E-1,6.723461E-1,3.7395114E-1,2.2462866E-1,1.8322134E-1,3.918796E-1,0E0,0E0,4.24932E-2,8.195795E-1,8.375112E-1,5.185759E-2,1.8922758E-1,2.5429893E-1,4.037993E-1,9.3313694E-2,2.224232E-1,0E0,0E0,0E0,0E0,0E0,0E0,0E0,0E0,0E0,0E0,0E0,0E0,0E0,0E0,0E0,0E0,0E0,0E0,0E0,0E0,0E0,0E0,0E0,0E0,0E0,0E0,0E0,0E0],"parents":[2147483647,0,0,1,1,2,2,3,3,4,4,5,5,6,6,7,7,8,8,9,9,10,10,11,11,12,12,13,13,14,14,15,15,16,16,17,17,18,18,19,19,22,22,23,23,24,24,25,25,26,26,27,27,28,28,29,29,30,30],"right_children":[2,4,6,8,10,12,14,16,18,20,22,24,26,28,30,32,34,36,38,40,-1,-1,42,44,46,48,50,52,54,56,58,-1,-1,-1,-1,-1,-1,-1,-1,-1,-1,-1,-1,-1,-1,-1,-1,-1,-1,-1,-1,-1,-1,-1,-1,-1,-1,-1,-1],"split_conditions":[1.28E2,1E0,1E0,1E0,1E0,1E0,2.0084256E2,1E0,1E3,4.1E0,1E0,1.44E0,1.65E0,1.2767794E2,2.6733844E2,4E0,1.0611306E2,1E0,1E0,1E0,1.9456625E-1,1.8181644E-1,2E3,1E0,1E0,2.3497676E2,1E0,4.42E0,1E0,1.18E0,1E0,-2.628183E-1,-1.3262318E-1,-9.69719E-2,1.271754E-2,-6.9762945E-2,6.770859E-3,-1.1139233E-1,-5.0403845E-2,-5.353372E-2,1.354192E-1,2.8701412E-2,-5.2674294E-2,7.968645E-2,-7.458635E-2,-5.7773567E-3,2.6027966E-1,4.7683716E-2,-5.18775E-2,-6.805229E-2,-1.7114343E-1,8.9954294E-2,1.6822307E-1,6.0428735E-2,-1.1780241E-2,1.0204973E-1,2.3156847E-1,6.64466E-2,1.9804215E-1],"split_indices":[6,35,35,34,14,41,4,11,5,1,29,1,1,4,4,0,4,42,39,30,0,0,5,9,31,4,38,1,37,1,31,0,0,0,0,0,0,0,0,0,0,0,0,0,0,0,0,0,0,0,0,0,0,0,0,0,0,0,0],"split_type":[0,0,0,0,0,0,0,0,0,0,0,0,0,0,0,0,0,0,0,0,0,0,0,0,0,0,0,0,0,0,0,0,0,0,0,0,0,0,0,0,0,0,0,0,0,0,0,0,0,0,0,0,0,0,0,0,0,0,0],"sum_hessian":[1.054E3,3.68E2,6.86E2,3.11E2,5.7E1,3.17E2,3.69E2,1.93E2,1.18E2,4.2E1,1.5E1,2.91E2,2.6E1,3.08E2,6.1E1,1.61E2,3.2E1,5.8E1,6E1,4.1E1,1E0,6E0,9E0,7.9E1,2.12E2,4E0,2.2E1,7.8E1,2.3E2,2.4E1,3.7E1,1.1E1,1.5E2,2E1,1.2E1,1.1E1,4.7E1,3.8E1,2.2E1,3.9E1,2E0,8E0,1E0,7E1,9E0,2.1E2,2E0,3E0,1E0,1E1,1.2E1,6.4E1,1.4E1,2.09E2,2.1E1,4E0,2E1,3.4E1,3E0],"tree_param":{"num_deleted":"0","num_feature":"43","num_nodes":"59","size_leaf_vector":"1"}},{"base_weights":[5.149977E-4,-6.810464E-2,6.412496E-2,-9.171441E-2,3.4175992E-2,7.3428765E-2,-1.334478E-1,-1.2054981E-1,-3.2742724E-2,5.9373986E-2,-4.3891907E-2,8.323248E-2,-9.07801E-2,8.472443E-3,-2.0073217E-1,-1.4473364E-1,-1.7999314E-2,-3.7882596E-2,1.6656995E-1,4.243386E-3,1.19108826E-1,-5.8439687E-2,3.871123E-2,7.891077E-2,4.222997E-1,-1.6869843E-2,-1.635657E-1,-4.5227323E-2,6.547388E-2,7.3011396E-3,-2.6530406E-1,-8.2875915E-2,-2.3438988E-2,7.4740574E-3,-1.0465777E-1,-1.291684E-2,-8.011762E-2,6.4745374E-2,-1.6127817E-2,6.775813E-2,-5.0537903E-2,-1.39417285E-2,-4.615941E-2,4.4553768E-2,-9.547528E-3,-7.6749325E-3,2.564498E-1,-2.8133305E-2,2.9084602E-2,2.688408E-3,-1.031247E-1,-3.781287E-2,3.429079E-2,6.993151E-2,-3.0402541E-2,-1.503129E-1,-5.5336833E-2],"categories":[],"categories_nodes":[],"categories_segments":[],"categories_sizes":[],"default_left":[0,0,0,0,0,0,0,0,0,0,0,0,0,0,0,0,0,0,0,0,0,0,0,0,0,0,0,0,0,0,0,0,0,0,0,0,0,0,0,0,0,0,0,0,0,0,0,0,0,0,0,0,0,0,0,0,0],"id":3,"left_children":[1,3,5,7,9,11,13,15,17,19,21,23,25,27,29,31,33,35,-1,37,39,41,-1,43,45,47,49,51,-1,53,55,-1,-1,-1,-1,-1,-1,-1,-1,-1,-1,-1,-1,-1,-1,-1,-1,-1,-1,-1,-1,-1,-1,-1,-1,-1,-1],"loss_changes":[4.6093287E0,1.2298641E0,1.0171206E0,6.983478E-1,1.9145286E-1,8.511207E-1,2.404261E-1,6.843729E-1,2.7026096E-1,2.3989943E-1,4.688106E-2,6.9202375E-1,1.5862873E-1,6.5114476E-2,2.3029971E-1,4.529419E-1,3.4351125E-1,1.96354E-1,0E0,1.8246163E-1,1.4014065E-1,2.020064E-2,0E0,4.9137926E-1,2.4577892E-1,5.057372E-2,1.0927531E-1,2.9403808E-2,0E0,5.3645823E-2,3.7732303E-2,0E0,0E0,0E0,0E0,0E0,0E0,0E0,0E0,0E0,0E0,0E0,0E0,0E0,0E0,0E0,0E0,0E0,0E0,0E0,0E0,0E0,0E0,0E0,0E0,0E0,0E0],"parents":[2147483647,0,0,1,1,2,2,3,3,4,4,5,5,6,6,7,7,8,8,9,9,10,10,11,11,12,12,13,13,14,14,15,15,16,16,17,17,19,19,20,20,21,21,23,23,24,24,25,25,26,26,27,27,29,29,30,30],"right_children":[2,4,6,8,10,12,14,16,18,20,22,24,26,28,30,32,34,36,-1,38,40,42,-1,44,46,48,50,52,-1,54,56,-1,-1,-1,-1,-1,-1,-1,-1,-1,-1,-1,-1,-1,-1,-1,-1,-1,-1,-1,-1,-1,-1,-1,-1,-1,-1],"split_conditions":[2.4E2,2.5E0,1E0,1E0,1E0,1E0,1.2767794E2,1E0,1E0,2.73E0,1.2E1,1E0,2.03E0,1.2E1,6E0,1E0,1E0,1E0,1.6656995E-1,2.54E0,4.6E0,1E0,3.871123E-2,1E0,1.3E0,1E0,6E0,1E0,6.547388E-2,2E0,2.24E0,-8.2875915E-2,-2.3438988E-2,7.4740574E-3,-1.0465777E-1,-1.291684E-2,-8.011762E-2,6.4745374E-2,-1.6127817E-2,6.775813E-2,-5.0537903E-2,-1.39417285E-2,-4.615941E-2,4.4553768E-2,-9.547528E-3,-7.6749325E-3,2.564498E-1,-2.8133305E-2,2.9084602E-2,2.688408E-3,-1.031247E-1,-3.781287E-2,3.429079E-2,6.993151E-2,-3.0402541E-2,-1.503129E-1,-5.5336833E-2],"split_indices":[6,1,7,34,17,41,4,35,28,1,0,21,1,0,0,11,2,2,0,1,1,34,0,37,1,39,0,33,0,0,1,0,0,0,0,0,0,0,0,0,0,0,0,0,0,0,0,0,0,0,0,0,0,0,0,0,0],"split_type":[0,0,0,0,0,0,0,0,0,0,0,0,0,0,0,0,0,0,0,0,0,0,0,0,0,0,0,0,0,0,0,0,0,0,0,0,0,0,0,0,0,0,0,0,0,0,0,0,0,0,0,0,0,0,0,0,0],"sum_hessian":[1.054E3,5.07E2,5.47E2,4.12E2,9.5E1,5.23E2,2.4E1,2.76E2,1.36E2,7.2E1,2.3E1,4.94E2,2.9E1,8E0,1.6E1,2.23E2,5.3E1,1.35E2,1E0,3.8E1,3.4E1,2.1E1,2E0,4.89E2,5E0,1.5E1,1.4E1,6E0,2E0,4E0,1.2E1,1.83E2,4E1,4.6E1,7E0,1.24E2,1.1E1,8E0,3E1,3.2E1,2E0,1.2E1,9E0,4.43E2,4.6E1,1E0,4E0,1E1,5E0,3E0,1.1E1,5E0,1E0,1E0,3E0,9E0,3E0],"tree_param":{"num_deleted":"0","num_feature":"43","num_nodes":"57","size_leaf_vector":"1"}},{"base_weights":[2.5241E-4,-8.286065E-2,1.69882E-2,-1.626625E-1,-6.5468006E-2,6.2494134E-3,1.02505974E-1,-4.81059E-2,-2.3248215E-1,1.6541372E-1,-7.6465905E-2,-5.4958207E-3,8.0394536E-2,6.6076644E-2,1.6340992E-1,4.415059E-2,-1.630969E-1,-1.0293722E-2,-2.4311034E-1,1.2336254E-1,8.354416E-2,-5.4144822E-2,-1.3554291E-1,2.9351192E-3,-8.757679E-2,6.638238E-2,2.7108505E-1,4.292555E-2,1.8448487E-1,2.095766E-1,8.480479E-2,5.471754E-2,-2.4246335E-2,-1.1248589E-3,-9.74082E-2,-1.3225463E-1,-6.7285635E-2,2.9982328E-3,9.843373E-2,-3.433992E-2,9.557909E-3,-9.326873E-2,-4.49885E-2,-4.2862337E-2,5.7319924E-3,-6.0094893E-2,1.239872E-2,1.9175017E-2,8.26504E-2,1.8471606E-1,7.89299E-2,5.2619457E-2,-1.6783752E-2,1.4047642E-1,3.6673706E-2,1.1418629E-1,7.205645E-3,6.1239317E-2,-5.3358395E-2],"categories":[],"categories_nodes":[],"categories_segments":[],"categories_sizes":[],"default_left":[0,0,0,0,0,0,0,0,0,0,0,0,0,0,0,0,0,0,0,0,0,0,0,0,0,0,0,0,0,0,0,0,0,0,0,0,0,0,0,0,0,0,0,0,0,0,0,0,0,0,0,0,0,0,0,0,0,0,0],"id":4,"left_children":[1,3,5,7,9,11,13,15,17,19,21,23,25,27,29,31,33,-1,35,-1,37,39,41,43,45,47,49,51,53,55,57,-1,-1,-1,-1,-1,-1,-1,-1,-1,-1,-1,-1,-1,-1,-1,-1,-1,-1,-1,-1,-1,-1,-1,-1,-1,-1,-1,-1],"loss_changes":[1.4688731E0,2.3502064E-1,8.065953E-1,2.3676354E-1,3.85913E-1,6.81448E-1,2.0663404E-1,1.451135E-1,3.778398E-2,2.598603E-2,1.7859244E-1,4.6806237E-1,2.679072E-1,1.6478145E-1,1.1286867E-1,5.369214E-2,3.017366E-2,0E0,6.211877E-3,0E0,4.27593E-2,1.1205673E-1,7.1513236E-2,4.6526954E-1,2.3386654E-1,2.7372515E-1,1.962918E-2,2.6092574E-1,8.660489E-2,7.741189E-2,1.2130084E-1,0E0,0E0,0E0,0E0,0E0,0E0,0E0,0E0,0E0,0E0,0E0,0E0,0E0,0E0,0E0,0E0,0E0,0E0,0E0,0E0,0E0,0E0,0E0,0E0,0E0,0E0,0E0,0E0],"parents":[2147483647,0,0,1,1,2,2,3,3,4,4,5,5,6,6,7,7,8,8,9,9,10,10,11,11,12,12,13,13,14,14,15,15,16,16,18,18,20,20,21,21,22,22,23,23,24,24,25,25,26,26,27,27,28,28,29,29,30,30],"right_children":[2,4,6,8,10,12,14,16,18,20,22,24,26,28,30,32,34,-1,36,-1,38,40,42,44,46,48,50,52,54,56,58,-1,-1,-1,-1,-1,-1,-1,-1,-1,-1,-1,-1,-1,-1,-1,-1,-1,-1,-1,-1,-1,-1,-1,-1,-1,-1,-1,-1],"split_conditions":[1.0611306E2,1.93E0,2.0084256E2,1E0,1.98E0,2.8E0,1.49E0,1E0,1.64E0,1.94E0,1E0,1E0,1E0,3.3126422E2,3.2E1,1E0,1.4E0,-1.0293722E-2,1E0,1.2336254E-1,1E3,1E0,1E3,1E0,1E0,1E0,3.14E0,2.3497676E2,1.22E0,1E0,1E0,5.471754E-2,-2.4246335E-2,-1.1248589E-3,-9.74082E-2,-1.3225463E-1,-6.7285635E-2,2.9982328E-3,9.843373E-2,-3.433992E-2,9.557909E-3,-9.326873E-2,-4.49885E-2,-4.2862337E-2,5.7319924E-3,-6.0094893E-2,1.239872E-2,1.9175017E-2,8.26504E-2,1.8471606E-1,7.89299E-2,5.2619457E-2,-1.6783752E-2,1.4047642E-1,3.6673706E-2,1.1418629E-1,7.205645E-3,6.1239317E-2,-5.3358395E-2],"split_indices":[4,1,4,14,1,1,1,36,1,1,41,36,31,4,5,17,1,0,33,0,5,14,5,42,41,11,1,4,1,26,2,0,0,0,0,0,0,0,0,0,0,0,0,0,0,0,0,0,0,0,0,0,0,0,0,0,0,0,0],"split_type":[0,0,0,0,0,0,0,0,0,0,0,0,0,0,0,0,0,0,0,0,0,0,0,0,0,0,0,0,0,0,0,0,0,0,0,0,0,0,0,0,0,0,0,0,0,0,0,0,0,0,0,0,0,0,0,0,0,0,0],"sum_hessian":[1.054E3,1.76E2,8.78E2,3E1,1.46E2,7.81E2,9.7E1,1.2E1,1.8E1,6E0,1.4E2,6.75E2,1.06E2,6.2E1,3.5E1,7E0,5E0,1E0,1.7E1,2E0,4E0,1.03E2,3.7E1,6.13E2,6.2E1,1E2,6E0,5.3E1,9E0,2.1E1,1.4E1,4E0,3E0,1E0,4E0,1.3E1,4E0,3E0,1E0,8.6E1,1.7E1,1.6E1,2.1E1,5.3E1,5.6E2,4.8E1,1.4E1,7.9E1,2.1E1,2E0,4E0,2.9E1,2.4E1,4E0,5E0,1.9E1,2E0,1.2E1,2E0],"tree_param":{"num_deleted":"0","num_feature":"43","num_nodes":"59","size_leaf_vector":"1"}},{"base_weights":[5.119884E-4,-8.674742E-3,6.265375E-2,-1.223872E-2,1.706001E-1,4.956786E-2,1.826535E-1,-6.3594044E-3,-6.801827E-2,1.2663993E-1,1.4640033E-1,6.263532E-2,-3.0864663E-2,2.1949282E-1,4.4891834E-2,-4.985349E-3,-2.287838E-1,-4.308914E-2,-9.986795E-2,8.2513206E-2,9.919538E-2,7.863949E-2,-1.5628213E-2,3.4526385E-2,-1.6740115E-1,1.515812E-1,1.1318604E-1,7.93457E-2,-1.4617443E-2,-8.2226E-3,1.2451657E-2,-1.290853E-1,-2.7809143E-2,-1.0185515E-2,-7.215966E-2,-7.814804E-2,-8.018762E-3,2.2994518E-2,6.746662E-2,2.9046975E-2,9.227766E-2,4.2977333E-2,-4.102389E-2,-2.1042867E-2,1.5196435E-1,-1.3715541E-1,1.547273E-2,6.6890836E-2,2.399826E-2,1.0378838E-2,4.913044E-2],"categories":[],"categories_nodes":[],"categories_segments":[],"categories_sizes":[],"default_left":[0,0,0,0,0,0,0,0,0,0,0,0,0,0,0,0,0,0,0,0,0,0,0,0,0,0,0,0,0,0,0,0,0,0,0,0,0,0,0,0,0,0,0,0,0,0,0,0,0,0,0],"id":5,"left_children":[1,3,5,7,9,11,13,15,17,19,-1,21,23,25,27,29,31,33,35,37,-1,39,41,43,45,-1,47,49,-1,-1,-1,-1,-1,-1,-1,-1,-1,-1,-1,-1,-1,-1,-1,-1,-1,-1,-1,-1,-1,-1,-1],"loss_changes":[6.0282147E-1,5.89905E-1,2.0450759E-1,2.957023E-1,5.9614956E-2,1.3226321E-1,5.6122124E-2,2.4885948E-1,6.397948E-2,3.1122103E-2,0E0,1.352511E-1,1.6648851E-1,5.4632723E-2,1.25354715E-2,2.7922052E-1,1.1084884E-2,1.12048015E-1,1.7251799E-1,1.48551315E-2,0E0,1.8295121E-1,1.3524713E-1,2.811043E-1,1.357197E-1,0E0,1.6346574E-3,1.284942E-3,0E0,0E0,0E0,0E0,0E0,0E0,0E0,0E0,0E0,0E0,0E0,0E0,0E0,0E0,0E0,0E0,0E0,0E0,0E0,0E0,0E0,0E0,0E0],"parents":[2147483647,0,0,1,1,2,2,3,3,4,4,5,5,6,6,7,7,8,8,9,9,11,11,12,12,13,13,14,14,15,15,16,16,17,17,18,18,19,19,21,21,22,22,23,23,24,24,26,26,27,27],"right_children":[2,4,6,8,10,12,14,16,18,20,-1,22,24,26,28,30,32,34,36,38,-1,40,42,44,46,-1,48,50,-1,-1,-1,-1,-1,-1,-1,-1,-1,-1,-1,-1,-1,-1,-1,-1,-1,-1,-1,-1,-1,-1,-1],"split_conditions":[5.12E2,1E0,1E3,1E0,1E0,1E0,1E0,1E0,8E0,1E0,1.4640033E-1,1E0,1E0,1E0,1E0,1.4686047E2,1E0,1E0,1E0,1E0,9.919538E-2,1E0,1.31E0,2.4E1,3.6E0,1.515812E-1,2.82424E2,1.2E1,-1.4617443E-2,-8.2226E-3,1.2451657E-2,-1.290853E-1,-2.7809143E-2,-1.0185515E-2,-7.215966E-2,-7.814804E-2,-8.018762E-3,2.2994518E-2,6.746662E-2,2.9046975E-2,9.227766E-2,4.2977333E-2,-4.102389E-2,-2.1042867E-2,1.5196435E-1,-1.3715541E-1,1.547273E-2,6.6890836E-2,2.399826E-2,1.0378838E-2,4.913044E-2],"split_indices":[6,31,6,7,36,9,26,24,6,3,0,14,3,11,17,4,3,34,39,11,0,29,1,0,1,0,4,0,0,0,0,0,0,0,0,0,0,0,0,0,0,0,0,0,0,0,0,0,0,0,0],"split_type":[0,0,0,0,0,0,0,0,0,0,0,0,0,0,0,0,0,0,0,0,0,0,0,0,0,0,0,0,0,0,0,0,0,0,0,0,0,0,0,0,0,0,0,0,0,0,0,0,0,0,0],"sum_hessian":[1.054E3,9.19E2,1.35E2,9.02E2,1.7E1,1.23E2,1.2E1,8.17E2,8.5E1,1.4E1,3E0,1.06E2,1.7E1,9E0,3E0,8.13E2,4E0,4.9E1,3.6E1,1E1,4E0,8.8E1,1.8E1,1.2E1,5E0,4E0,5E0,2E0,1E0,5.88E2,2.25E2,3E0,1E0,4.1E1,8E0,2.1E1,1.5E1,7E0,3E0,7.5E1,1.3E1,7E0,1.1E1,1E1,2E0,3E0,2E0,3E0,2E0,1E0,1E0],"tree_param":{"num_deleted":"0","num_feature":"43","num_nodes":"51","size_leaf_vector":"1"}},{"base_weights":[6.679616E-4,-4.913759E-3,4.4199817E-2,-9.935916E-4,-8.073888E-2,3.7104655E-2,1.9996758E-1,1.1996778E-2,-2.1489972E-2,-1.3603802E-1,2.159719E-2,5.269395E-2,-1.6233904E-2,-2.1909475E-2,1.3593447E-1,-1.6643101E-3,6.6159494E-2,-3.3289045E-2,5.4280482E-2,-1.64042E-1,-1.1060316E-1,5.947329E-2,-8.749119E-2,9.68165E-3,8.118953E-2,7.751397E-2,-4.6710152E-2,5.0664563E-3,-3.870913E-2,9.161355E-2,1.9851658E-2,-1.7403312E-2,1.05116844E-1,-9.939943E-3,5.4975193E-2,-6.5142505E-2,-1.6472748E-2,4.1031104E-2,-2.911822E-2,1.7778957E-2,-1.5320364E-2,6.5170385E-2,1.8761922E-2,5.612755E-2,2.6507298E-2,-3.4202825E-2,5.3132374E-2],"categories":[],"categories_nodes":[],"categories_segments":[],"categories_sizes":[],"default_left":[0,0,0,0,0,0,0,0,0,0,0,0,0,0,0,0,0,0,0,0,0,0,0,0,0,0,0,0,0,0,0,0,0,0,0,0,0,0,0,0,0,0,0,0,0,0,0],"id":6,"left_children":[1,3,5,7,9,11,13,15,17,19,21,23,25,-1,-1,27,29,31,33,-1,35,37,-1,39,41,43,45,-1,-1,-1,-1,-1,-1,-1,-1,-1,-1,-1,-1,-1,-1,-1,-1,-1,-1,-1,-1],"loss_changes":[2.565639E-1,2.781431E-1,1.2520392E-1,2.3749152E-1,2.6325646E-1,9.731065E-2,9.9555954E-2,4.0410727E-1,3.1113824E-1,1.1025268E-1,1.3698314E-1,1.0952337E-1,8.076194E-2,0E0,0E0,3.9132538E-1,3.3341303E-1,1.1818707E-1,1.9622532E-1,0E0,3.8504153E-2,4.466304E-2,0E0,3.9695043E-2,1.1100513E-1,6.791204E-6,7.696533E-2,0E0,0E0,0E0,0E0,0E0,0E0,0E0,0E0,0E0,0E0,0E0,0E0,0E0,0E0,0E0,0E0,0E0,0E0,0E0,0E0],"parents":[2147483647,0,0,1,1,2,2,3,3,4,4,5,5,6,6,7,7,8,8,9,9,10,10,11,11,12,12,15,15,16,16,17,17,18,18,20,20,21,21,23,23,24,24,25,25,26,26],"right_children":[2,4,6,8,10,12,14,16,18,20,22,24,26,-1,-1,28,30,32,34,-1,36,38,-1,40,42,44,46,-1,-1,-1,-1,-1,-1,-1,-1,-1,-1,-1,-1,-1,-1,-1,-1,-1,-1,-1,-1],"split_conditions":[2.8E0,1E0,1E0,2.1E0,1E3,1E0,2.83E0,1.93E0,1E0,1.68E0,1E0,1.2E1,2.94E0,-2.1909475E-2,1.3593447E-1,1.85E0,1.96E0,2.4E1,2.31E0,-1.64042E-1,1E0,1E0,-8.749119E-2,1E0,1E0,6E0,7.68E2,5.0664563E-3,-3.870913E-2,9.161355E-2,1.9851658E-2,-1.7403312E-2,1.05116844E-1,-9.939943E-3,5.4975193E-2,-6.5142505E-2,-1.6472748E-2,4.1031104E-2,-2.911822E-2,1.7778957E-2,-1.5320364E-2,6.5170385E-2,1.8761922E-2,5.612755E-2,2.6507298E-2,-3.4202825E-2,5.3132374E-2],"split_indices":[1,32,32,1,5,9,1,1,14,1,27,0,1,0,0,1,1,0,1,0,7,17,0,34,3,0,6,0,0,0,0,0,0,0,0,0,0,0,0,0,0,0,0,0,0,0,0],"split_type":[0,0,0,0,0,0,0,0,0,0,0,0,0,0,0,0,0,0,0,0,0,0,0,0,0,0,0,0,0,0,0,0,0,0,0,0,0,0,0,0,0,0,0,0,0,0,0],"sum_hessian":[1.054E3,9.35E2,1.19E2,8.9E2,4.5E1,1.15E2,4E0,5.45E2,3.45E2,2.9E1,1.6E1,8.9E1,2.6E1,1E0,3E0,4.36E2,1.09E2,2.99E2,4.6E1,2E0,2.7E1,1.4E1,2E0,3.6E1,5.3E1,6E0,2E1,3.78E2,5.8E1,1.9E1,9E1,2.98E2,1E0,2E1,2.6E1,2.1E1,6E0,1.2E1,2E0,2.2E1,1.4E1,2.4E1,2.9E1,1E0,5E0,1.8E1,2E0],"tree_param":{"num_deleted":"0","num_feature":"43","num_nodes":"47","size_leaf_vector":"1"}},{"base_weights":[5.1523093E-4,-2.0723995E-3,5.4844737E-2,5.269333E-2,-4.9857395E-3,3.728418E-2,9.920435E-2,1.7956348E-2,1.9331932E-1,-6.910597E-3,7.3564366E-2,1.4147694E-1,2.0298518E-2,3.036499E-3,2.1090221E-1,1.22734785E-1,-1.0187785E-2,-9.225944E-3,4.5183826E-2,1.6602746E-1,4.5360163E-2,2.3594698E-2,8.841169E-2,-3.9433554E-2,4.8306607E-2,-1.5020297E-2,3.0083846E-2,2.1362782E-2,1.3681388E-1,2.3245811E-4,-7.873297E-3,-5.2489694E-3,4.272926E-2,-1.764965E-2,3.484429E-2,1.0531068E-1,-3.0870438E-3,2.8979115E-2,-4.5351267E-2,-4.0592935E-2,2.1803666E-2,3.68688E-2,-5.3742197E-3],"categories":[],"categories_nodes":[],"categories_segments":[],"categories_sizes":[],"default_left":[0,0,0,0,0,0,0,0,0,0,0,0,0,0,0,0,0,0,0,0,0,0,0,0,0,0,0,0,0,0,0,0,0,0,0,0,0,0,0,0,0,0,0],"id":7,"left_children":[1,3,5,7,9,11,-1,13,15,17,19,21,23,25,27,-1,29,31,33,35,37,-1,-1,39,41,-1,-1,-1,-1,-1,-1,-1,-1,-1,-1,-1,-1,-1,-1,-1,-1,-1,-1],"loss_changes":[1.484305E-1,1.6109031E-1,1.1361353E-1,2.4565974E-1,1.4535582E-1,7.499868E-2,0E0,1.2026597E-1,1.0863027E-1,1.1331407E-1,5.2449465E-2,1.16521865E-2,6.715116E-2,7.739683E-2,1.9956023E-2,0E0,1.8496983E-4,1.0893018E-1,8.134874E-2,3.9696082E-2,3.7825376E-2,0E0,0E0,4.8613243E-2,4.1341923E-2,0E0,0E0,0E0,0E0,0E0,0E0,0E0,0E0,0E0,0E0,0E0,0E0,0E0,0E0,0E0,0E0,0E0,0E0],"parents":[2147483647,0,0,1,1,2,2,3,3,4,4,5,5,7,7,8,8,9,9,10,10,11,11,12,12,13,13,14,14,16,16,17,17,18,18,19,19,20,20,23,23,24,24],"right_children":[2,4,6,8,10,12,-1,14,16,18,20,22,24,26,28,-1,30,32,34,36,38,-1,-1,40,42,-1,-1,-1,-1,-1,-1,-1,-1,-1,-1,-1,-1,-1,-1,-1,-1,-1,-1],"split_conditions":[1E0,1.17E0,2E3,1.13E0,1E0,1.93E0,9.920435E-2,2.5467136E2,1E0,1E0,1E0,1.71E0,2.43E0,5.12E2,9.8E-1,1.22734785E-1,1.2E1,1E3,1E0,1.4686047E2,1E0,2.3594698E-2,8.841169E-2,1E0,2.99E0,-1.5020297E-2,3.0083846E-2,2.1362782E-2,1.3681388E-1,2.3245811E-4,-7.873297E-3,-5.2489694E-3,4.272926E-2,-1.764965E-2,3.484429E-2,1.0531068E-1,-3.0870438E-3,2.8979115E-2,-4.5351267E-2,-4.0592935E-2,2.1803666E-2,3.68688E-2,-5.3742197E-3],"split_indices":[18,1,5,1,31,1,0,4,2,23,35,1,1,6,1,0,0,6,29,4,38,0,0,34,1,0,0,0,0,0,0,0,0,0,0,0,0,0,0,0,0,0,0],"split_type":[0,0,0,0,0,0,0,0,0,0,0,0,0,0,0,0,0,0,0,0,0,0,0,0,0,0,0,0,0,0,0,0,0,0,0,0,0,0,0,0,0,0,0],"sum_hessian":[1.054E3,1.007E3,4.7E1,5E1,9.57E2,4.3E1,4E0,4.1E1,9E0,9.35E2,2.2E1,5E0,3.8E1,3.9E1,2E0,7E0,2E0,8.96E2,3.9E1,4E0,1.8E1,2E0,3E0,1.2E1,2.6E1,2.5E1,1.4E1,1E0,1E0,1E0,1E0,8.85E2,1.1E1,9E0,3E1,3E0,1E0,1.7E1,1E0,8E0,4E0,1.8E1,8E0],"tree_param":{"num_deleted":"0","num_feature":"43","num_nodes":"43","size_leaf_vector":"1"}},{"base_weights":[8.763987E-4,1.5725264E-3,-1.4562492E-1,5.1962454E-3,-2.4833087E-2,-8.060992E-2,-2.081132E-2,9.912475E-3,-1.0908594E-2,-2.8946463E-2,6.294441E-2,3.2246432E-3,4.672703E-2,2.5708903E-2,-3.912625E-2,5.2031517E-2,-3.0905738E-2,1.4735031E-2,7.599783E-2,3.9037191E-3,-3.4840226E-2,3.0046007E-2,-2.460541E-2,3.4535814E-2,-1.8864745E-2,-5.4348346E-2,6.431213E-3,-7.270084E-3,-2.6170988E-2,-1.1754036E-4,9.268165E-3],"categories":[],"categories_nodes":[],"categories_segments":[],"categories_sizes":[],"default_left":[0,0,0,0,0,0,0,0,0,0,0,0,0,0,0,0,0,0,0,0,0,0,0,0,0,0,0,0,0,0,0],"id":8,"left_children":[1,3,5,7,9,-1,-1,11,13,15,17,19,21,23,25,-1,27,29,-1,-1,-1,-1,-1,-1,-1,-1,-1,-1,-1,-1,-1],"loss_changes":[1.07821725E-1,1.0069557E-1,1.3991371E-3,7.036569E-2,4.7676884E-2,0E0,0E0,1.7613538E-1,2.1799049E-1,3.5009652E-2,2.3518972E-2,2.0334825E-1,1.4399998E-1,2.556853E-1,4.3180627E-1,0E0,4.168769E-2,2.8888683E-4,0E0,0E0,0E0,0E0,0E0,0E0,0E0,0E0,0E0,0E0,0E0,0E0,0E0],"parents":[2147483647,0,0,1,1,2,2,3,3,4,4,7,7,8,8,9,9,10,10,11,11,12,12,13,13,14,14,16,16,17,17],"right_children":[2,4,6,8,10,-1,-1,12,14,16,18,20,22,24,26,-1,28,30,-1,-1,-1,-1,-1,-1,-1,-1,-1,-1,-1,-1,-1],"split_conditions":[1E0,1E0,1E0,1.6172539E2,1E0,-8.060992E-2,-2.081132E-2,1.4686047E2,1.3E0,8.0936554E1,1.252E0,1E0,1E0,1E0,1.7623257E2,5.2031517E-2,6E0,8.1E-1,7.599783E-2,3.9037191E-3,-3.4840226E-2,3.0046007E-2,-2.460541E-2,3.4535814E-2,-1.8864745E-2,-5.4348346E-2,6.431213E-3,-7.270084E-3,-2.6170988E-2,-1.1754036E-4,9.268165E-3],"split_indices":[24,41,3,4,26,0,0,4,1,4,1,2,9,3,4,0,0,1,0,0,0,0,0,0,0,0,0,0,0,0,0],"split_type":[0,0,0,0,0,0,0,0,0,0,0,0,0,0,0,0,0,0,0,0,0,0,0,0,0,0,0,0,0,0,0],"sum_hessian":[1.054E3,1.05E3,4E0,9.24E2,1.26E2,3E0,1E0,7.15E2,2.09E2,1.21E2,5E0,6.06E2,1.09E2,9.1E1,1.18E2,1E0,1.2E2,4E0,1E0,5.71E2,3.5E1,9.6E1,1.3E1,5.4E1,3.7E1,5E1,6.8E1,6.9E1,5.1E1,1E0,3E0],"tree_param":{"num_deleted":"0","num_feature":"43","num_nodes":"31","size_leaf_vector":"1"}},{"base_weights":[3.8576894E-4,9.592734E-2,-4.358738E-4,-2.378788E-2,9.822855E-2,-1.7563565E-2,4.247196E-3,6.53216E-2,-5.2484035E-2,-2.9982723E-2,2.6503144E-2,4.5823753E-2,-3.4051696E-3,9.967566E-3,3.9023638E-2,-3.7045784E-2,5.4393087E-2,5.7822768E-2,-1.9501232E-2,1.4435083E-1,2.6241418E-2,-7.0579554E-4,-3.903352E-2,-3.630354E-2,-1.078572E-2,5.5918965E-2,-1.335144E-3,6.2114717E-3,3.2164775E-2,1.7104149E-2,-4.100127E-2,8.1521414E-2,-5.737233E-2,9.404164E-3,7.4734606E-2,3.9009661E-3,-8.100794E-3,-9.150561E-3,-8.040673E-2],"categories":[],"categories_nodes":[],"categories_segments":[],"categories_sizes":[],"default_left":[0,0,0,0,0,0,0,0,0,0,0,0,0,0,0,0,0,0,0,0,0,0,0,0,0,0,0,0,0,0,0,0,0,0,0,0,0,0,0],"id":9,"left_children":[1,3,5,7,-1,9,11,13,-1,15,17,19,21,-1,-1,23,25,27,29,31,33,35,37,-1,-1,-1,-1,-1,-1,-1,-1,-1,-1,-1,-1,-1,-1,-1,-1],"loss_changes":[8.286041E-2,1.1298778E-1,8.405465E-2,4.3026306E-2,0E0,1.239307E-1,2.620009E-1,1.7683767E-4,0E0,1.0690248E-1,7.3169604E-2,2.4317402E-1,6.6909716E-2,0E0,0E0,8.813064E-2,4.619059E-2,8.063048E-3,7.330041E-2,1.20411605E-1,9.611275E-2,8.555482E-2,1.2077167E-1,0E0,0E0,0E0,0E0,0E0,0E0,0E0,0E0,0E0,0E0,0E0,0E0,0E0,0E0,0E0,0E0],"parents":[2147483647,0,0,1,1,2,2,3,3,5,5,6,6,7,7,9,9,10,10,11,11,12,12,15,15,16,16,17,17,18,18,19,19,20,20,21,21,22,22],"right_children":[2,4,6,8,-1,10,12,14,-1,16,18,20,22,-1,-1,24,26,28,30,32,34,36,38,-1,-1,-1,-1,-1,-1,-1,-1,-1,-1,-1,-1,-1,-1,-1,-1],"split_conditions":[1.00454666E2,8.0936554E1,1.1782653E2,1E0,9.822855E-2,1E0,1.2767794E2,6E0,-5.2484035E-2,1E0,1E0,2.45E0,1E0,9.967566E-3,3.9023638E-2,1.95E0,2.02E0,1.83E0,2.19E0,1E0,1E0,2.08E0,8E0,-3.630354E-2,-1.078572E-2,5.5918965E-2,-1.335144E-3,6.2114717E-3,3.2164775E-2,1.7104149E-2,-4.100127E-2,8.1521414E-2,-5.737233E-2,9.404164E-3,7.4734606E-2,3.9009661E-3,-8.100794E-3,-9.150561E-3,-8.040673E-2],"split_indices":[4,4,4,17,0,11,4,0,0,23,33,1,33,0,0,1,1,1,1,2,32,1,0,0,0,0,0,0,0,0,0,0,0,0,0,0,0,0,0],"split_type":[0,0,0,0,0,0,0,0,0,0,0,0,0,0,0,0,0,0,0,0,0,0,0,0,0,0,0,0,0,0,0,0,0,0,0,0,0,0,0],"sum_hessian":[1.054E3,8E0,1.046E3,4E0,4E0,2.24E2,8.22E2,2E0,2E0,1.75E2,4.9E1,1.27E2,6.95E2,1E0,1E0,1.62E2,1.3E1,2.9E1,2E1,2E1,1.07E2,6.47E2,4.8E1,4.8E1,1.14E2,6E0,7E0,4E0,2.5E1,1.1E1,9E0,1.9E1,1E0,1.02E2,5E0,4.18E2,2.29E2,4.2E1,6E0],"tree_param":{"num_deleted":"0","num_feature":"43","num_nodes":"39","size_leaf_vector":"1"}},{"base_weights":[3.1744337E-4,-1.1820369E-2,5.523626E-3,-3.093481E-3,-1.5661182E-1,4.806552E-3,8.9921795E-2,4.426006E-3,-7.351441E-2,7.2008767E-3,-2.201706E-1,3.916506E-3,6.716299E-2,8.7050395E-3,-6.946843E-2,1.0815408E-2,-1.06155075E-1,-3.373146E-2,5.296564E-2,-1.22868635E-1,-5.0605655E-2,3.9152894E-2,4.8708665E-4,-3.6166947E-2,6.303455E-3,-9.5374905E-2,-1.806835E-2,-1.7267862E-2,1.4353275E-2,-6.909907E-3,-7.566779E-2,-1.6010603E-3,-2.650849E-2,2.8191885E-2,-3.7163153E-2,-3.857719E-2,1.8104619E-3],"categories":[],"categories_nodes":[],"categories_segments":[],"categories_sizes":[],"default_left":[0,0,0,0,0,0,0,0,0,0,0,0,0,0,0,0,0,0,0,0,0,0,0,0,0,0,0,0,0,0,0,0,0,0,0,0,0],"id":10,"left_children":[1,3,5,7,9,11,-1,13,15,17,19,21,-1,23,25,27,29,31,-1,-1,-1,33,35,-1,-1,-1,-1,-1,-1,-1,-1,-1,-1,-1,-1,-1,-1],"loss_changes":[6.67325E-2,4.0006998E-1,9.15108E-2,1.5918416E-1,1.889967E-1,8.443397E-2,0E0,8.661025E-2,8.097297E-2,2.7820816E-2,1.4666736E-2,8.855691E-2,0E0,8.2492396E-2,5.3744704E-2,8.293854E-3,8.5515395E-2,2.7741035E-3,0E0,0E0,0E0,1.3128829E-1,1.6305757E-1,0E0,0E0,0E0,0E0,0E0,0E0,0E0,0E0,0E0,0E0,0E0,0E0,0E0,0E0],"parents":[2147483647,0,0,1,1,2,2,3,3,4,4,5,5,7,7,8,8,9,9,10,10,11,11,13,13,14,14,15,15,16,16,17,17,21,21,22,22],"right_children":[2,4,6,8,10,12,-1,14,16,18,20,22,-1,24,26,28,30,32,-1,-1,-1,34,36,-1,-1,-1,-1,-1,-1,-1,-1,-1,-1,-1,-1,-1,-1],"split_conditions":[1.64E0,1.62E0,1E0,1E0,6E0,1E0,8.9921795E-2,1E0,1.11E0,1E0,3.2E1,1.85E0,6.716299E-2,1E0,4E0,4E0,8E0,1E0,5.296564E-2,-1.22868635E-1,-5.0605655E-2,1E0,1.88E0,-3.6166947E-2,6.303455E-3,-9.5374905E-2,-1.806835E-2,-1.7267862E-2,1.4353275E-2,-6.909907E-3,-7.566779E-2,-1.6010603E-3,-2.650849E-2,2.8191885E-2,-3.7163153E-2,-3.857719E-2,1.8104619E-3],"split_indices":[1,1,22,9,0,21,0,28,1,11,5,1,0,38,0,0,6,3,0,0,0,9,1,0,0,0,0,0,0,0,0,0,0,0,0,0,0],"split_type":[0,0,0,0,0,0,0,0,0,0,0,0,0,0,0,0,0,0,0,0,0,0,0,0,0,0,0,0,0,0,0,0,0,0,0,0,0],"sum_hessian":[1.054E3,3.16E2,7.38E2,2.99E2,1.7E1,7.36E2,2E0,2.71E2,2.8E1,5E0,1.2E1,7.32E2,4E0,2.57E2,1.4E1,8E0,2E1,4E0,1E0,9E0,3E0,6.4E1,6.68E2,1.1E1,2.46E2,2E0,1.2E1,2E0,6E0,7E0,1.3E1,2E0,2E0,5.6E1,8E0,2.5E1,6.43E2],"tree_param":{"num_deleted":"0","num_feature":"43","num_nodes":"37","size_leaf_vector":"1"}},{"base_weights":[-9.330912E-5,8.1634045E-2,-4.0320426E-4,-7.2542734E-2,5.6735927E-4,-4.5871098E-2,-7.7524185E-2,9.796927E-4,-5.3287506E-2,-1.7739903E-2,-8.882856E-2,-1.5218804E-3,1.7582199E-2,1.2612104E-2,-2.8873682E-2,-9.6450094E-4,9.142542E-2,6.080811E-3,5.7869162E-2],"categories":[],"categories_nodes":[],"categories_segments":[],"categories_sizes":[],"default_left":[0,0,0,0,0,0,0,0,0,0,0,0,0,0,0,0,0,0,0],"id":11,"left_children":[1,-1,3,5,7,9,-1,11,-1,13,-1,15,17,-1,-1,-1,-1,-1,-1],"loss_changes":[5.3475104E-2,0E0,7.383802E-2,2.3695603E-2,4.609411E-2,4.133597E-2,0E0,4.313737E-2,0E0,2.0364366E-2,0E0,6.813378E-2,7.095298E-2,0E0,0E0,0E0,0E0,0E0,0E0],"parents":[2147483647,0,0,2,2,3,3,4,4,5,5,7,7,9,9,11,11,12,12],"right_children":[2,-1,4,6,8,10,-1,12,-1,14,-1,16,18,-1,-1,-1,-1,-1,-1],"split_conditions":[2E0,8.1634045E-2,4E0,8E0,1E0,1E0,-7.7524185E-2,5.12E2,-5.3287506E-2,1.1782653E2,-8.882856E-2,3.5246515E2,1E0,1.2612104E-2,-2.8873682E-2,-9.6450094E-4,9.142542E-2,6.080811E-3,5.7869162E-2],"split_indices":[0,0,0,6,24,32,0,6,0,4,0,4,34,0,0,0,0,0,0],"split_type":[0,0,0,0,0,0,0,0,0,0,0,0,0,0,0,0,0,0,0],"sum_hessian":[1.054E3,1E0,1.053E3,1.3E1,1.04E3,1.1E1,2E0,1.037E3,3E0,1E1,1E0,9.02E2,1.35E2,5E0,5E0,9.01E2,1E0,1.29E2,6E0],"tree_param":{"num_deleted":"0","num_feature":"43","num_nodes":"19","size_leaf_vector":"1"}},{"base_weights":[-4.678428E-5,-6.2845144E-3,7.820603E-3,-7.6258765E-3,6.489121E-2,1.198481E-2,-6.327171E-2,-4.8884144E-3,-6.8092495E-2,-3.5684012E-2,1.2746048E-1,1.9849971E-2,-2.2787234E-2,-4.2247336E-2,-1.0518805E-1,-1.2781244E-3,-4.299547E-2,-2.9498328E-2,-2.1656951E-1,-2.5417805E-3,-2.1031618E-2,8.907795E-2,4.489994E-2,2.4709212E-2,-1.1594772E-2,-9.606654E-3,-1.4350677E-1,3.1712532E-2,-5.4736875E-2,-2.2345544E-3,1.860505E-2,-1.7902529E-2,-6.945833E-2,-3.2745812E-2,6.992304E-2,-1.566807E-1,4.2649508E-2,-1.1043549E-3,3.066953E-2,1.6650371E-2,4.604133E-3,5.3606316E-4,-1.889363E-2,-1.7052358E-2,1.2189195E-2,-1.15303755E-1,-2.2562409E-2,-3.8881555E-2,9.813468E-3],"categories":[],"categories_nodes":[],"categories_segments":[],"categories_sizes":[],"default_left":[0,0,0,0,0,0,0,0,0,0,0,0,0,0,0,0,0,0,0,0,0,0,0,0,0,0,0,0,0,0,0,0,0,0,0,0,0,0,0,0,0,0,0,0,0,0,0,0,0],"id":12,"left_children":[1,3,5,7,9,11,13,15,17,19,21,23,25,27,-1,29,31,33,35,-1,-1,-1,37,39,41,43,45,-1,47,-1,-1,-1,-1,-1,-1,-1,-1,-1,-1,-1,-1,-1,-1,-1,-1,-1,-1,-1,-1],"loss_changes":[5.1822893E-2,5.6728087E-2,1.3901043E-1,9.550616E-2,7.3770404E-2,1.2133388E-1,7.1524374E-2,7.630058E-2,1.3687027E-1,7.6220464E-4,2.12989E-2,5.5446446E-2,1.2909596E-1,3.514688E-2,0E0,6.2556475E-2,2.8132305E-2,1.3715929E-1,1.7282157E-1,0E0,0E0,0E0,3.2331785E-3,4.1377723E-2,1.6297612E-2,6.3274E-2,5.8147013E-2,0E0,3.919726E-2,0E0,0E0,0E0,0E0,0E0,0E0,0E0,0E0,0E0,0E0,0E0,0E0,0E0,0E0,0E0,0E0,0E0,0E0,0E0,0E0],"parents":[2147483647,0,0,1,1,2,2,3,3,4,4,5,5,6,6,7,7,8,8,9,9,10,10,11,11,12,12,13,13,15,15,16,16,17,17,18,18,22,22,23,23,24,24,25,25,26,26,28,28],"right_children":[2,4,6,8,10,12,14,16,18,20,22,24,26,28,-1,30,32,34,36,-1,-1,-1,38,40,42,44,46,-1,48,-1,-1,-1,-1,-1,-1,-1,-1,-1,-1,-1,-1,-1,-1,-1,-1,-1,-1,-1,-1],"split_conditions":[5E2,3.6E0,1E0,1E0,1.2E1,1E0,1E0,1E0,1E0,4.14E0,5.12E2,1E0,1.2E1,1.54E0,-1.0518805E-1,2.31E0,1E0,2.4E1,6.4E1,-2.5417805E-3,-2.1031618E-2,8.907795E-2,2.4E1,2.54E0,1E0,2.23E0,2.54E0,3.1712532E-2,1E0,-2.2345544E-3,1.860505E-2,-1.7902529E-2,-6.945833E-2,-3.2745812E-2,6.992304E-2,-1.566807E-1,4.2649508E-2,-1.1043549E-3,3.066953E-2,1.6650371E-2,4.604133E-3,5.3606316E-4,-1.889363E-2,-1.7052358E-2,1.2189195E-2,-1.15303755E-1,-2.2562409E-2,-3.8881555E-2,9.813468E-3],"split_indices":[5,1,2,27,0,17,27,9,3,1,6,41,0,1,0,1,32,0,0,0,0,0,0,1,33,1,1,0,33,0,0,0,0,0,0,0,0,0,0,0,0,0,0,0,0,0,0,0,0],"split_type":[0,0,0,0,0,0,0,0,0,0,0,0,0,0,0,0,0,0,0,0,0,0,0,0,0,0,0,0,0,0,0,0,0,0,0,0,0,0,0,0,0,0,0,0,0,0,0,0,0],"sum_hessian":[1.054E3,5.88E2,4.66E2,5.78E2,1E1,4.41E2,2.5E1,5.54E2,2.4E1,4E0,6E0,3.6E2,8.1E1,2.3E1,2E0,5.07E2,4.7E1,2E1,4E0,1E0,3E0,3E0,3E0,3.12E2,4.8E1,7.4E1,7E0,2E0,2.1E1,4.69E2,3.8E1,4.5E1,2E0,1.7E1,3E0,3E0,1E0,1E0,2E0,2E2,1.12E2,3.3E1,1.5E1,4.3E1,3.1E1,3E0,4E0,1.6E1,5E0],"tree_param":{"num_deleted":"0","num_feature":"43","num_nodes":"49","size_leaf_vector":"1"}},{"base_weights":[-3.031943E-4,-6.8053725E-4,9.9013805E-2,6.310972E-2,-1.2298014E-3,9.268045E-3,5.9830505E-2,-1.9898605E-2,1.3349609E-1,-8.784632E-4,-9.235811E-2,1.5474479E-2,-3.205665E-2,1.0311365E-2,7.8279376E-2,7.858486E-4,-1.9369204E-2,-6.862656E-2,1.0581732E-2,-6.7189576E-5,1.826348E-2,-1.72925E-3,-2.5261354E-2],"categories":[],"categories_nodes":[],"categories_segments":[],"categories_sizes":[],"default_left":[0,0,0,0,0,0,0,0,0,0,0,0,0,0,0,0,0,0,0,0,0,0,0],"id":13,"left_children":[1,3,5,7,9,-1,-1,11,13,15,17,-1,-1,-1,-1,19,21,-1,-1,-1,-1,-1,-1],"loss_changes":[3.9605163E-2,3.693727E-2,4.4285133E-3,5.524029E-2,3.3344463E-2,0E0,0E0,1.3225287E-2,9.787127E-3,3.2051325E-2,2.3290962E-2,0E0,0E0,0E0,0E0,3.1447716E-2,4.245325E-2,0E0,0E0,0E0,0E0,0E0,0E0],"parents":[2147483647,0,0,1,1,2,2,3,3,4,4,7,7,8,8,9,9,10,10,15,15,16,16],"right_children":[2,4,6,8,10,-1,-1,12,14,16,18,-1,-1,-1,-1,20,22,-1,-1,-1,-1,-1,-1],"split_conditions":[1E0,1.00454666E2,9.9E-1,6E0,1E0,9.268045E-3,5.9830505E-2,1E0,1.252E0,1E0,6E0,1.5474479E-2,-3.205665E-2,1.0311365E-2,7.8279376E-2,4.42E0,8E0,-6.862656E-2,1.0581732E-2,-6.7189576E-5,1.826348E-2,-1.72925E-3,-2.5261354E-2],"split_indices":[16,4,1,0,10,0,0,17,1,7,0,0,0,0,0,1,0,0,0,0,0,0,0],"split_type":[0,0,0,0,0,0,0,0,0,0,0,0,0,0,0,0,0,0,0,0,0,0,0],"sum_hessian":[1.054E3,1.051E3,3E0,8E0,1.043E3,1E0,2E0,4E0,4E0,1.04E3,3E0,2E0,2E0,1E0,3E0,9.55E2,8.5E1,2E0,1E0,9.32E2,2.3E1,5.7E1,2.8E1],"tree_param":{"num_deleted":"0","num_feature":"43","num_nodes":"23","size_leaf_vector":"1"}},{"base_weights":[-8.1614635E-5,6.221652E-2,-3.178079E-4,-8.2644506E-4,5.2866556E-2,5.9344526E-4,-3.3142436E-2,9.788952E-2,6.536325E-3,-4.6193744E-3,8.785407E-3,-5.3745847E-2,2.6278814E-2,6.7694187E-3,1.1559248E-1,-2.1449884E-2,4.1979313E-2,7.4275555E-3,-5.452525E-3,1.8445283E-4,1.5102937E-2,3.525257E-3,-4.0242795E-2,-1.0276E-2,6.253922E-2,1.7242432E-2,6.5566696E-2,-1.4592648E-2,3.771464E-2],"categories":[],"categories_nodes":[],"categories_segments":[],"categories_sizes":[],"default_left":[0,0,0,0,0,0,0,0,0,0,0,0,0,0,0,0,0,0,0,0,0,0,0,0,0,0,0,0,0],"id":14,"left_children":[1,-1,3,5,7,9,11,13,15,17,19,21,23,-1,25,-1,27,-1,-1,-1,-1,-1,-1,-1,-1,-1,-1,-1,-1],"loss_changes":[3.106659E-2,0E0,2.8556017E-2,4.7969665E-2,2.0219404E-2,4.2829208E-2,5.5280723E-2,5.9012957E-3,1.231388E-2,7.519951E-2,7.0300154E-2,5.421488E-2,5.8093015E-2,0E0,5.1983073E-4,0E0,1.1723241E-2,0E0,0E0,0E0,0E0,0E0,0E0,0E0,0E0,0E0,0E0,0E0,0E0],"parents":[2147483647,0,0,2,2,3,3,4,4,5,5,6,6,7,7,8,8,9,9,10,10,11,11,12,12,14,14,16,16],"right_children":[2,-1,4,6,8,10,12,14,16,18,20,22,24,-1,26,-1,28,-1,-1,-1,-1,-1,-1,-1,-1,-1,-1,-1,-1],"split_conditions":[2E0,6.221652E-2,3.3126422E2,2.7605353E2,1.22E0,1E0,1E0,1.8E2,1E0,1E0,1E0,1.25E0,1E0,6.7694187E-3,9.8E-1,-2.1449884E-2,5.12E2,7.4275555E-3,-5.452525E-3,1.8445283E-4,1.5102937E-2,3.525257E-3,-4.0242795E-2,-1.0276E-2,6.253922E-2,1.7242432E-2,6.5566696E-2,-1.4592648E-2,3.771464E-2],"split_indices":[0,0,4,4,1,35,29,6,26,29,29,1,34,0,1,0,6,0,0,0,0,0,0,0,0,0,0,0,0],"split_type":[0,0,0,0,0,0,0,0,0,0,0,0,0,0,0,0,0,0,0,0,0,0,0,0,0,0,0,0,0],"sum_hessian":[1.054E3,1E0,1.053E3,1.044E3,9E0,1.001E3,4.3E1,4E0,5E0,6.12E2,3.89E2,3.2E1,1.1E1,1E0,3E0,2E0,3E0,1.49E2,4.63E2,2.8E2,1.09E2,1E1,2.2E1,8E0,3E0,1E0,2E0,1E0,2E0],"tree_param":{"num_deleted":"0","num_feature":"43","num_nodes":"29","size_leaf_vector":"1"}},{"base_weights":[1.3571282E-4,-6.4247276E-4,3.5080496E-2,7.074591E-3,-4.242858E-3,5.997777E-3,8.886087E-2,-2.5258217E-2,1.2823041E-2,-2.418571E-3,-6.354731E-2,-3.170003E-2,4.7658086E-2,1.0658296E-1,1.18982E-2,-4.3339264E-2,3.561004E-2,1.8129338E-2,-3.3729028E-2,-8.0033764E-4,-4.5107916E-2,-1.1222512E-1,1.5777206E-2,9.085655E-3,-5.3607147E-2,7.710498E-2,-3.961754E-2,6.487417E-2,4.0168125E-2,-2.5596503E-2,3.3984978E-2,1.5830994E-4,5.3058863E-2,1.1367264E-3,1.5711214E-2,-2.7235901E-2,1.9622121E-2,-4.221956E-2,-1.7064374E-5,-3.5071317E-2,3.595935E-3,3.4623086E-2,-1.9831955E-2,9.015083E-3,-4.4369698E-3,1.3356447E-2,-3.7506867E-2,7.3898635E-3,4.9539566E-2,3.6582947E-2,-6.456852E-3],"categories":[],"categories_nodes":[],"categories_segments":[],"categories_sizes":[],"default_left":[0,0,0,0,0,0,0,0,0,0,0,0,0,0,0,0,0,0,0,0,0,0,0,0,0,0,0,0,0,0,0,0,0,0,0,0,0,0,0,0,0,0,0,0,0,0,0,0,0,0,0],"id":15,"left_children":[1,3,5,7,9,11,13,15,17,19,21,23,25,27,-1,29,31,33,35,37,39,-1,41,43,45,47,-1,-1,49,-1,-1,-1,-1,-1,-1,-1,-1,-1,-1,-1,-1,-1,-1,-1,-1,-1,-1,-1,-1,-1,-1],"loss_changes":[2.8711706E-2,2.8731301E-2,3.544086E-2,6.1472982E-2,7.6119095E-2,2.6638797E-2,6.6883415E-3,5.6571405E-2,6.977683E-2,4.7284607E-2,2.7157572E-1,8.528528E-3,3.600229E-2,4.019402E-3,0E0,3.7573144E-2,2.9827889E-2,5.3043537E-2,4.603408E-2,4.2357154E-2,3.3237208E-2,0E0,4.7212265E-2,8.0255786E-4,1.2320099E-2,8.122452E-3,0E0,0E0,6.1995876E-3,0E0,0E0,0E0,0E0,0E0,0E0,0E0,0E0,0E0,0E0,0E0,0E0,0E0,0E0,0E0,0E0,0E0,0E0,0E0,0E0,0E0,0E0],"parents":[2147483647,0,0,1,1,2,2,3,3,4,4,5,5,6,6,7,7,8,8,9,9,10,10,11,11,12,12,13,13,15,15,16,16,17,17,18,18,19,19,20,20,22,22,23,23,24,24,25,25,28,28],"right_children":[2,4,6,8,10,12,14,16,18,20,22,24,26,28,-1,30,32,34,36,38,40,-1,42,44,46,48,-1,-1,50,-1,-1,-1,-1,-1,-1,-1,-1,-1,-1,-1,-1,-1,-1,-1,-1,-1,-1,-1,-1,-1,-1],"split_conditions":[1E0,6E0,1E0,1.45E0,1E0,1E0,2.24E0,1E0,1E0,1E0,1.7623257E2,2.19E0,1E0,1E0,1.18982E-2,1.28E2,1E0,1.07590096E2,1E3,9.7E-1,1E0,-1.1222512E-1,2.56E2,1.2E1,1.07590096E2,2.31E0,-3.961754E-2,6.487417E-2,1.79E0,-2.5596503E-2,3.3984978E-2,1.5830994E-4,5.3058863E-2,1.1367264E-3,1.5711214E-2,-2.7235901E-2,1.9622121E-2,-4.221956E-2,-1.7064374E-5,-3.5071317E-2,3.595935E-3,3.4623086E-2,-1.9831955E-2,9.015083E-3,-4.4369698E-3,1.3356447E-2,-3.7506867E-2,7.3898635E-3,4.9539566E-2,3.6582947E-2,-6.456852E-3],"split_indices":[31,0,11,1,36,3,1,26,32,33,4,1,38,2,0,5,14,4,5,1,39,0,6,0,4,1,0,0,1,0,0,0,0,0,0,0,0,0,0,0,0,0,0,0,0,0,0,0,0,0,0],"split_type":[0,0,0,0,0,0,0,0,0,0,0,0,0,0,0,0,0,0,0,0,0,0,0,0,0,0,0,0,0,0,0,0,0,0,0,0,0,0,0,0,0,0,0,0,0,0,0,0,0,0,0],"sum_hessian":[1.054E3,1.032E3,2.2E1,3.28E2,7.04E2,1.5E1,7E0,4.9E1,2.79E2,6.84E2,2E1,8E0,7E0,5E0,2E0,3.8E1,1.1E1,2.51E2,2.8E1,6.6E2,2.4E1,6E0,1.4E1,3E0,5E0,6E0,1E0,3E0,2E0,3.6E1,2E0,8E0,3E0,1.15E2,1.36E2,2.2E1,6E0,5E0,6.55E2,1.6E1,8E0,7E0,7E0,2E0,1E0,1E0,4E0,2E0,4E0,1E0,1E0],"tree_param":{"num_deleted":"0","num_feature":"43","num_nodes":"51","size_leaf_vector":"1"}},{"base_weights":[7.207608E-5,-3.921758E-4,6.0880065E-2,-2.433642E-3,1.3315551E-2,1.1999321E-2,5.338049E-2,-1.8721162E-3,-1.0403232E-1,3.2610953E-2,-3.7833697E-3,2.3489634E-2,-2.69804E-2,5.69972E-3,-6.8935137E-3,-8.63812E-2,-4.365921E-2,6.519997E-2,-1.7526846E-2,-2.6786018E-2,1.5863467E-2,-2.3800373E-2,3.565073E-3,-2.5916351E-2,4.4258256E-3,-4.2058905E-3,1.6766716E-2,-3.5449743E-2,-5.472978E-3,1.616333E-2,5.7821084E-2,-1.9715289E-2,5.6400657E-2,5.7902336E-3,-2.8842425E-2,3.6219046E-2,-5.4849386E-3],"categories":[],"categories_nodes":[],"categories_segments":[],"categories_sizes":[],"default_left":[0,0,0,0,0,0,0,0,0,0,0,0,0,0,0,0,0,0,0,0,0,0,0,0,0,0,0,0,0,0,0,0,0,0,0,0,0],"id":16,"left_children":[1,3,5,7,9,11,-1,13,15,17,19,-1,21,23,25,-1,27,29,31,33,35,-1,-1,-1,-1,-1,-1,-1,-1,-1,-1,-1,-1,-1,-1,-1,-1],"loss_changes":[2.9806763E-2,2.9359495E-2,1.6660487E-2,5.189216E-2,4.499393E-2,8.085063E-3,0E0,3.4600563E-2,1.3204567E-2,1.0571502E-1,3.3415757E-2,0E0,2.449514E-3,6.628458E-2,3.3856347E-2,0E0,2.78841E-3,6.0931563E-2,7.866931E-2,4.0974323E-2,6.1518095E-2,0E0,0E0,0E0,0E0,0E0,0E0,0E0,0E0,0E0,0E0,0E0,0E0,0E0,0E0,0E0,0E0],"parents":[2147483647,0,0,1,1,2,2,3,3,4,4,5,5,7,7,8,8,9,9,10,10,12,12,13,13,14,14,16,16,17,17,18,18,19,19,20,20],"right_children":[2,4,6,8,10,12,-1,14,16,18,20,-1,22,24,26,-1,28,30,32,34,36,-1,-1,-1,-1,-1,-1,-1,-1,-1,-1,-1,-1,-1,-1,-1,-1],"split_conditions":[1E0,5.12E2,1.24E0,2.4E1,1.6172539E2,1.2E1,5.338049E-2,1.41212E2,3.2E1,2.25E0,1.35E0,2.3489634E-2,9.1E-1,1.35E0,2.69E0,-8.63812E-2,1E0,1E0,1E0,1E0,1.47E0,-2.3800373E-2,3.565073E-3,-2.5916351E-2,4.4258256E-3,-4.2058905E-3,1.6766716E-2,-3.5449743E-2,-5.472978E-3,1.616333E-2,5.7821084E-2,-1.9715289E-2,5.6400657E-2,5.7902336E-3,-2.8842425E-2,3.6219046E-2,-5.4849386E-3],"split_indices":[22,6,1,0,4,0,0,4,0,1,1,0,1,1,1,0,3,17,29,3,1,0,0,0,0,0,0,0,0,0,0,0,0,0,0,0,0],"split_type":[0,0,0,0,0,0,0,0,0,0,0,0,0,0,0,0,0,0,0,0,0,0,0,0,0,0,0,0,0,0,0,0,0,0,0,0,0],"sum_hessian":[1.054E3,1.047E3,7E0,9.12E2,1.35E2,4E0,3E0,9.08E2,4E0,6.3E1,7.2E1,2E0,2E0,3.62E2,5.46E2,1E0,3E0,3.8E1,2.5E1,3.3E1,3.9E1,1E0,1E0,1.8E1,3.44E2,5.27E2,1.9E1,1E0,2E0,2.4E1,1.4E1,2.2E1,3E0,1.5E1,1.8E1,1.2E1,2.7E1],"tree_param":{"num_deleted":"0","num_feature":"43","num_nodes":"37","size_leaf_vector":"1"}},{"base_weights":[7.261213E-5,4.9863886E-3,-5.329756E-3,-1.2882942E-3,3.0852335E-2,-1.9148244E-2,4.0073963E-3,1.4682234E-3,-9.3214475E-2,1.8858438E-2,7.6880366E-2,-2.3155402E-2,4.1199096E-2,4.958435E-2,-5.269225E-3,-2.0284464E-3,5.224238E-2,-1.995627E-2,-2.0643635E-1,1.0329373E-2,7.8334615E-2,1.14375316E-1,1.0012627E-2,-3.8515605E-2,-4.7393064E-3,6.1585687E-2,-4.7284763E-2,2.9204309E-2,1.4087439E-1,-6.5707094E-3,8.0025434E-2,3.870712E-3,-8.275869E-3,-6.407911E-3,1.2462391E-1,5.146726E-2,-3.4886427E-2,-3.167343E-2,-1.4035685E-1,5.5147886E-2,2.600968E-3,8.66673E-2,4.126891E-2,-1.0949339E-2,4.0567398E-2,-2.2235803E-2,5.426526E-3,1.0846968E-2,-1.9253278E-2,3.8163185E-2,-2.1455288E-2,-5.9144497E-3,-2.9549122E-2,-3.0173268E-3,3.9420296E-2,-6.5488816E-4,-2.5922647E-2],"categories":[],"categories_nodes":[],"categories_segments":[],"categories_sizes":[],"default_left":[0,0,0,0,0,0,0,0,0,0,0,0,0,0,0,0,0,0,0,0,0,0,0,0,0,0,0,0,0,0,0,0,0,0,0,0,0,0,0,0,0,0,0,0,0,0,0,0,0,0,0,0,0,0,0,0,0],"id":17,"left_children":[1,3,5,7,9,11,13,15,17,19,21,23,25,27,29,31,33,35,37,39,-1,41,43,45,47,49,51,53,-1,55,-1,-1,-1,-1,-1,-1,-1,-1,-1,-1,-1,-1,-1,-1,-1,-1,-1,-1,-1,-1,-1,-1,-1,-1,-1,-1,-1],"loss_changes":[2.8032638E-2,8.9792E-2,6.4976476E-2,1.13151535E-1,5.8172144E-2,5.0043717E-2,1.2752412E-1,7.715853E-2,1.0370792E-1,1.00641266E-1,5.4013267E-2,5.3846583E-2,2.6362553E-2,2.3307925E-1,5.5057168E-2,5.787764E-2,3.6206526E-1,6.2280037E-2,3.535919E-2,4.1969676E-2,0E0,1.1972964E-2,2.2203157E-2,3.1062782E-2,7.938221E-2,2.0219024E-2,5.575046E-4,8.443408E-2,0E0,5.9478734E-2,0E0,0E0,0E0,0E0,0E0,0E0,0E0,0E0,0E0,0E0,0E0,0E0,0E0,0E0,0E0,0E0,0E0,0E0,0E0,0E0,0E0,0E0,0E0,0E0,0E0,0E0,0E0],"parents":[2147483647,0,0,1,1,2,2,3,3,4,4,5,5,6,6,7,7,8,8,9,9,10,10,11,11,12,12,13,13,14,14,15,15,16,16,17,17,18,18,19,19,21,21,22,22,23,23,24,24,25,25,26,26,27,27,29,29],"right_children":[2,4,6,8,10,12,14,16,18,20,22,24,26,28,30,32,34,36,38,40,-1,42,44,46,48,50,52,54,-1,56,-1,-1,-1,-1,-1,-1,-1,-1,-1,-1,-1,-1,-1,-1,-1,-1,-1,-1,-1,-1,-1,-1,-1,-1,-1,-1,-1],"split_conditions":[2.08E0,1.93E0,2.3E0,1.91E0,1.4686047E2,1E0,2.4E0,1.88E0,1E0,5.12E2,2.2084282E2,1E3,1E0,1E0,1E0,1.49E0,1E0,1E0,1.8E2,1.94E0,7.8334615E-2,6E0,1E0,1E0,8E0,1E0,1.2E1,2.31E0,1.4087439E-1,1E0,8.0025434E-2,3.870712E-3,-8.275869E-3,-6.407911E-3,1.2462391E-1,5.146726E-2,-3.4886427E-2,-3.167343E-2,-1.4035685E-1,5.5147886E-2,2.600968E-3,8.66673E-2,4.126891E-2,-1.0949339E-2,4.0567398E-2,-2.2235803E-2,5.426526E-3,1.0846968E-2,-1.9253278E-2,3.8163185E-2,-2.1455288E-2,-5.9144497E-3,-2.9549122E-2,-3.0173268E-3,3.9420296E-2,-6.5488816E-4,-2.5922647E-2],"split_indices":[1,1,1,1,4,9,1,1,38,6,4,5,2,27,28,1,14,29,6,1,0,0,34,3,0,3,0,1,0,38,0,0,0,0,0,0,0,0,0,0,0,0,0,0,0,0,0,0,0,0,0,0,0,0,0,0,0],"split_type":[0,0,0,0,0,0,0,0,0,0,0,0,0,0,0,0,0,0,0,0,0,0,0,0,0,0,0,0,0,0,0,0,0,0,0,0,0,0,0,0,0,0,0,0,0,0,0,0,0,0,0,0,0,0,0,0,0],"sum_hessian":[1.054E3,5.52E2,5.02E2,4.45E2,1.07E2,2.02E2,3E2,4.33E2,1.2E1,8.6E1,2.1E1,1.9E2,1.2E1,5E1,2.5E2,4.06E2,2.7E1,8E0,4E0,8.2E1,4E0,1.3E1,8E0,1.03E2,8.7E1,1E1,2E0,4.7E1,3E0,2.49E2,1E0,2.43E2,1.63E2,2.1E1,6E0,2E0,6E0,2E0,2E0,3E0,7.9E1,3E0,1E1,6E0,2E0,9.2E1,1.1E1,4.9E1,3.8E1,9E0,1E0,1E0,1E0,2.8E1,1.9E1,2.24E2,2.5E1],"tree_param":{"num_deleted":"0","num_feature":"43","num_nodes":"57","size_leaf_vector":"1"}},{"base_weights":[4.52245E-4,5.0483704E-2,2.1743228E-5,1.4436586E-2,5.8882874E-2,-4.280739E-4,4.6710588E-2,3.1331826E-2,-1.8534342E-2,-1.8194836E-4,-4.264037E-2,6.1233878E-2,-7.5883865E-3,-1.1398792E-3,2.015233E-2,-1.1613607E-2,-2.2871494E-3,1.9755648E-2,-1.128297E-3,7.5302124E-2,-9.310961E-3,5.1651E-3,-1.085639E-2,-1.2980188E-2,1.8999422E-2,-5.489938E-3,1.2346095E-3,4.3807823E-2,3.5524368E-4],"categories":[],"categories_nodes":[],"categories_segments":[],"categories_sizes":[],"default_left":[0,0,0,0,0,0,0,0,0,0,0,0,0,0,0,0,0,0,0,0,0,0,0,0,0,0,0,0,0],"id":18,"left_children":[1,3,5,7,-1,9,11,13,15,17,-1,19,21,-1,-1,-1,-1,23,25,27,-1,-1,-1,-1,-1,-1,-1,-1,-1],"loss_changes":[2.272216E-2,2.0127777E-2,2.2008505E-2,4.480077E-3,0E0,2.1662498E-2,8.350665E-3,1.5998408E-3,9.028986E-5,1.956945E-2,0E0,1.0389721E-2,9.835649E-4,0E0,0E0,0E0,0E0,4.018477E-2,3.5113912E-2,6.3671507E-3,0E0,0E0,0E0,0E0,0E0,0E0,0E0,0E0,0E0],"parents":[2147483647,0,0,1,1,2,2,3,3,5,5,6,6,7,7,8,8,9,9,11,11,12,12,17,17,18,18,19,19],"right_children":[2,4,6,8,-1,10,12,14,16,18,-1,20,22,-1,-1,-1,-1,24,26,28,-1,-1,-1,-1,-1,-1,-1,-1,-1],"split_conditions":[1.00454666E2,1E0,3.3126422E2,1E0,5.8882874E-2,1E0,1E0,6.1879414E1,4.9591545E1,1.17E0,-4.264037E-2,1E0,1.22E0,-1.1398792E-3,2.015233E-2,-1.1613607E-2,-2.2871494E-3,9.7E-1,1.65E0,1.3E0,-9.310961E-3,5.1651E-3,-1.085639E-2,-1.2980188E-2,1.8999422E-2,-5.489938E-3,1.2346095E-3,4.3807823E-2,3.5524368E-4],"split_indices":[4,34,4,17,0,15,34,4,4,1,0,21,1,0,0,0,0,1,1,1,0,0,0,0,0,0,0,0,0],"split_type":[0,0,0,0,0,0,0,0,0,0,0,0,0,0,0,0,0,0,0,0,0,0,0,0,0,0,0,0,0],"sum_hessian":[1.054E3,8E0,1.046E3,6E0,2E0,1.037E3,9E0,4E0,2E0,1.035E3,2E0,7E0,2E0,1E0,3E0,1E0,1E0,4.6E1,9.89E2,6E0,1E0,1E0,1E0,1.3E1,3.3E1,2.64E2,7.25E2,5E0,1E0],"tree_param":{"num_deleted":"0","num_feature":"43","num_nodes":"29","size_leaf_vector":"1"}},{"base_weights":[2.7550792E-4,5.30921E-4,-6.696701E-2,4.47676E-3,-3.8844056E-3,-4.604451E-2,2.0997524E-3,-2.7149897E-3,1.4384702E-2,-4.3737716E-3,5.9710264E-2,1.893168E-3,-5.7719957E-2,3.4654062E-2,7.0373886E-3,2.723744E-3,-1.1425218E-2,4.0909695E-3,-1.786862E-2,1.1825221E-2,-4.2330313E-2,4.1923667E-3,3.1197596E-2,-2.0579545E-2,7.1659847E-3,3.5470389E-3,-9.138274E-3,-1.3030209E-2,7.773808E-5],"categories":[],"categories_nodes":[],"categories_segments":[],"categories_sizes":[],"default_left":[0,0,0,0,0,0,0,0,0,0,0,0,0,0,0,0,0,0,0,0,0,0,0,0,0,0,0,0,0],"id":19,"left_children":[1,3,5,7,9,-1,-1,11,13,15,-1,17,19,21,23,25,27,-1,-1,-1,-1,-1,-1,-1,-1,-1,-1,-1,-1],"loss_changes":[1.8154778E-2,1.834551E-2,7.538112E-3,3.9657082E-2,3.0511905E-2,0E0,0E0,8.1980586E-2,3.4604646E-2,2.4854802E-2,0E0,7.105046E-2,5.6806594E-2,4.4658765E-2,6.1412033E-2,2.2890668E-2,4.2206E-2,0E0,0E0,0E0,0E0,0E0,0E0,0E0,0E0,0E0,0E0,0E0,0E0],"parents":[2147483647,0,0,1,1,2,2,3,3,4,4,7,7,8,8,9,9,11,11,12,12,13,13,14,14,15,15,16,16],"right_children":[2,4,6,8,10,-1,-1,12,14,16,-1,18,20,22,24,26,28,-1,-1,-1,-1,-1,-1,-1,-1,-1,-1,-1,-1],"split_conditions":[1E0,2.1E0,6E0,1.65E0,1E0,-4.604451E-2,2.0997524E-3,1.62E0,1.86E0,1.2767794E2,5.9710264E-2,1.6E1,1.41212E2,1.78E0,1.88E0,1E0,1E3,4.0909695E-3,-1.786862E-2,1.1825221E-2,-4.2330313E-2,4.1923667E-3,3.1197596E-2,-2.0579545E-2,7.1659847E-3,3.5470389E-3,-9.138274E-3,-1.3030209E-2,7.773808E-5],"split_indices":[10,1,0,1,28,0,0,1,1,4,0,0,4,1,1,17,5,0,0,0,0,0,0,0,0,0,0,0,0],"split_type":[0,0,0,0,0,0,0,0,0,0,0,0,0,0,0,0,0,0,0,0,0,0,0,0,0,0,0,0,0],"sum_hessian":[1.054E3,1.051E3,3E0,5.55E2,4.96E2,2E0,1E0,3.22E2,2.33E2,4.95E2,1E0,2.98E2,2.4E1,6.1E1,1.72E2,2.47E2,2.48E2,2.56E2,4.2E1,6E0,1.8E1,3.2E1,2.9E1,2.2E1,1.5E2,2.05E2,4.2E1,1.09E2,1.39E2],"tree_param":{"num_deleted":"0","num_feature":"43","num_nodes":"29","size_leaf_vector":"1"}},{"base_weights":[1.1391301E-4,-5.8524957E-4,2.4869984E-2,-3.292212E-4,-6.5817595E-2,-1.7588468E-2,5.587527E-2,-7.733088E-4,4.0718254E-2,-4.20488E-2,7.796224E-2,7.8486286E-2,3.1930797E-2,1.026018E-3,-1.1087506E-2,4.309833E-2,1.2889266E-2,-5.5405855E-2,-4.8224926E-3,8.9223385E-3,4.954934E-2,5.1359072E-2,2.390044E-3,-9.477954E-4,6.2047723E-3,-6.534843E-2,-1.2931152E-3,1.0622899E-2,-4.0601096E-3,-3.1228065E-3,-3.5375834E-2,-1.20821E-2,4.8397384E-3,1.3958181E-2,4.4469517E-2,1.7983437E-2,-4.6002865E-3],"categories":[],"categories_nodes":[],"categories_segments":[],"categories_sizes":[],"default_left":[0,0,0,0,0,0,0,0,0,0,0,0,0,0,0,0,0,0,0,0,0,0,0,0,0,0,0,0,0,0,0,0,0,0,0,0,0],"id":20,"left_children":[1,3,5,7,-1,9,11,13,15,17,19,-1,21,23,25,-1,27,29,31,-1,-1,33,35,-1,-1,-1,-1,-1,-1,-1,-1,-1,-1,-1,-1,-1,-1],"loss_changes":[1.8275041E-2,3.4415085E-2,3.915942E-2,1.8734107E-2,0E0,3.3661846E-2,3.614001E-2,1.8866926E-2,1.2810785E-2,5.202377E-3,2.043629E-3,0E0,8.486136E-3,2.8825134E-2,1.5320365E-1,0E0,1.5770519E-3,5.5933427E-3,1.3558682E-3,0E0,0E0,5.445931E-3,3.0551492E-3,0E0,0E0,0E0,0E0,0E0,0E0,0E0,0E0,0E0,0E0,0E0,0E0,0E0,0E0],"parents":[2147483647,0,0,1,1,2,2,3,3,5,5,6,6,7,7,8,8,9,9,10,10,12,12,13,13,14,14,16,16,17,17,18,18,21,21,22,22],"right_children":[2,4,6,8,-1,10,12,14,16,18,20,-1,22,24,26,-1,28,30,32,-1,-1,34,36,-1,-1,-1,-1,-1,-1,-1,-1,-1,-1,-1,-1,-1,-1],"split_conditions":[4.36E0,4.33E0,1E0,1E3,-6.5817595E-2,1E0,1.6E1,2.54E0,1E0,7.2E0,2.4E1,7.8486286E-2,2.4E1,1E0,2.6E0,4.309833E-2,1E0,4.42E0,6E0,8.9223385E-3,4.954934E-2,1.2767794E2,3.2E1,-9.477954E-4,6.2047723E-3,-6.534843E-2,-1.2931152E-3,1.0622899E-2,-4.0601096E-3,-3.1228065E-3,-3.5375834E-2,-1.20821E-2,4.8397384E-3,1.3958181E-2,4.4469517E-2,1.7983437E-2,-4.6002865E-3],"split_indices":[1,1,3,6,0,9,0,1,2,1,0,0,0,39,1,0,29,1,0,0,0,4,5,0,0,0,0,0,0,0,0,0,0,0,0,0,0],"split_type":[0,0,0,0,0,0,0,0,0,0,0,0,0,0,0,0,0,0,0,0,0,0,0,0,0,0,0,0,0,0,0,0,0,0,0,0,0],"sum_hessian":[1.054E3,1.026E3,2.8E1,1.025E3,1E0,1.2E1,1.6E1,1.015E3,1E1,1E1,2E0,2E0,1.4E1,8.65E2,1.5E2,3E0,7E0,7E0,3E0,1E0,1E0,8E0,6E0,6.89E2,1.76E2,9E0,1.41E2,5E0,2E0,2E0,5E0,1E0,2E0,6E0,2E0,1E0,5E0],"tree_param":{"num_deleted":"0","num_feature":"43","num_nodes":"37","size_leaf_vector":"1"}},{"base_weights":[1.3812548E-4,4.6441793E-2,-3.7993155E-5,-4.458046E-2,1.3131724E-4,-1.9401437E-4,4.265201E-2,-2.9789176E-2,2.0726952E-4,2.0947048E-2,4.864669E-2,-4.2023975E-2,-6.8710246E-3,2.9914342E-3,-1.1616788E-3,1.73074E-2,1.021266E-3],"categories":[],"categories_nodes":[],"categories_segments":[],"categories_sizes":[],"default_left":[0,0,0,0,0,0,0,0,0,0,0,0,0,0,0,0,0],"id":21,"left_children":[1,-1,3,-1,5,7,9,11,13,15,-1,-1,-1,-1,-1,-1,-1],"loss_changes":[1.7236115E-2,0E0,1.5915977E-2,0E0,1.4574768E-2,1.2428534E-2,7.4499007E-3,1.1034775E-2,1.511211E-2,1.7379741E-3,0E0,0E0,0E0,0E0,0E0,0E0,0E0],"parents":[2147483647,0,0,2,2,4,4,5,5,6,6,7,7,8,8,9,9],"right_children":[2,-1,4,-1,6,8,10,12,14,16,-1,-1,-1,-1,-1,-1,-1],"split_conditions":[2E0,4.6441793E-2,6.9E-1,-4.458046E-2,1E0,4E0,1.74E0,1E0,6E0,1.2E1,4.864669E-2,-4.2023975E-2,-6.8710246E-3,2.9914342E-3,-1.1616788E-3,1.73074E-2,1.021266E-3],"split_indices":[0,0,1,0,22,0,1,36,0,0,0,0,0,0,0,0,0],"split_type":[0,0,0,0,0,0,0,0,0,0,0,0,0,0,0,0,0],"sum_hessian":[1.054E3,1E0,1.053E3,1E0,1.052E3,1.045E3,7E0,1.3E1,1.032E3,6E0,1E0,2E0,1.1E1,3.14E2,7.18E2,3E0,3E0],"tree_param":{"num_deleted":"0","num_feature":"43","num_nodes":"17","size_leaf_vector":"1"}},{"base_weights":[8.95577E-5,-5.460824E-4,1.5823342E-2,1.3887847E-4,-7.7124916E-2,2.1000838E-2,-5.6758564E-2,-2.4185465E-4,6.381909E-2,1.9278208E-2,-1.15684785E-1,-6.8090665E-3,4.0642906E-2,6.5038204E-3,-4.9072742E-2,2.004998E-5,-8.7724686E-2,-1.4805412E-1,1.9632816E-2,-4.4320885E-2,5.3110804E-2,7.274914E-2,2.9263193E-2,-1.8115986E-4,2.7238777E-2,-9.116864E-2,2.5375128E-2,1.962328E-2,-9.668179E-2,-3.0091286E-3,-3.2674175E-2,3.4761906E-2,4.026095E-3,1.9220978E-2,2.0513535E-3],"categories":[],"categories_nodes":[],"categories_segments":[],"categories_sizes":[],"default_left":[0,0,0,0,0,0,0,0,0,0,0,0,0,0,0,0,0,0,0,0,0,0,0,0,0,0,0,0,0,0,0,0,0,0,0],"id":22,"left_children":[1,3,5,7,9,11,13,15,-1,-1,17,19,21,-1,-1,23,25,27,-1,29,31,-1,33,-1,-1,-1,-1,-1,-1,-1,-1,-1,-1,-1,-1],"loss_changes":[1.055972E-2,5.3251013E-2,1.6599473E-2,4.8913877E-2,4.4606306E-2,2.1580258E-2,9.938867E-3,2.3028476E-2,0E0,0E0,4.092294E-2,4.0564876E-2,2.3186404E-2,0E0,0E0,2.090511E-2,4.8558086E-2,5.8507815E-2,0E0,8.466197E-3,4.617013E-3,0E0,4.923012E-3,0E0,0E0,0E0,0E0,0E0,0E0,0E0,0E0,0E0,0E0,0E0,0E0],"parents":[2147483647,0,0,1,1,2,2,3,3,4,4,5,5,6,6,7,7,10,10,11,11,12,12,15,15,16,16,17,17,19,19,20,20,22,22],"right_children":[2,4,6,8,10,12,14,16,-1,-1,18,20,22,-1,-1,24,26,28,-1,30,32,-1,34,-1,-1,-1,-1,-1,-1,-1,-1,-1,-1,-1,-1],"split_conditions":[4.1E0,3.78E0,1E0,3.6E0,1E0,1E0,1.2E1,3.58E0,6.381909E-2,1.9278208E-2,2.4E1,5.12E2,1.2E1,6.5038204E-3,-4.9072742E-2,2.4E1,6.4E1,1.6E1,1.9632816E-2,1.07590096E2,1.2767794E2,7.274914E-2,2.4E1,-1.8115986E-4,2.7238777E-2,-9.116864E-2,2.5375128E-2,1.962328E-2,-9.668179E-2,-3.0091286E-3,-3.2674175E-2,3.4761906E-2,4.026095E-3,1.9220978E-2,2.0513535E-3],"split_indices":[1,1,2,1,3,3,0,1,0,0,0,6,0,0,0,0,0,0,0,4,4,0,0,0,0,0,0,0,0,0,0,0,0,0,0],"split_type":[0,0,0,0,0,0,0,0,0,0,0,0,0,0,0,0,0,0,0,0,0,0,0,0,0,0,0,0,0,0,0,0,0,0,0],"sum_hessian":[1.054E3,1.014E3,4E1,1.006E3,8E0,3.8E1,2E0,1.004E3,2E0,2E0,6E0,1.6E1,2.2E1,1E0,1E0,1.002E3,2E0,5E0,1E0,1E1,6E0,1E0,2.1E1,9.96E2,6E0,1E0,1E0,1E0,4E0,4E0,6E0,4E0,2E0,1.5E1,6E0],"tree_param":{"num_deleted":"0","num_feature":"43","num_nodes":"35","size_leaf_vector":"1"}},{"base_weights":[8.4133055E-5,-1.5542505E-3,6.1348556E-3,-1.40266E-2,4.2820376E-4,1.4091974E-2,-2.6918108E-2,1.3829337E-3,-5.0325003E-2,2.1783156E-2,-2.1710389E-3,6.412487E-2,4.1894973E-3,8.680026E-4,-5.739185E-2,-5.023238E-3,9.976139E-2,-8.451736E-2,-1.8882751E-2,-5.362771E-4,7.2024226E-2,1.1830975E-4,-3.4011707E-2,1.2263876E-1,-1.1508056E-2,8.8789605E-4,8.4486805E-2,3.7363954E-2,-9.310273E-2,-8.518833E-2,2.6297411E-2,2.5727022E-3,-4.1212346E-2,6.5503E-2,-6.304264E-3,-6.2183857E-2,1.3139248E-3,2.28561E-2,-2.6106063E-2,2.9352594E-3,-8.6625814E-2,1.915465E-2,8.339206E-2,-2.7616432E-2,7.202454E-4,-3.236953E-2,6.3083286E-4,8.431133E-2,5.1155887E-3,3.7254907E-2,-2.6683092E-2,1.3764081E-2,-9.512978E-3,3.0257989E-2,3.7439663E-3,1.7091433E-2,-7.542677E-2,-4.6223767E-2,5.92494E-3,-8.592367E-3,1.9215394E-2],"categories":[],"categories_nodes":[],"categories_segments":[],"categories_sizes":[],"default_left":[0,0,0,0,0,0,0,0,0,0,0,0,0,0,0,0,0,0,0,0,0,0,0,0,0,0,0,0,0,0,0,0,0,0,0,0,0,0,0,0,0,0,0,0,0,0,0,0,0,0,0,0,0,0,0,0,0,0,0,0,0],"id":23,"left_children":[1,3,5,7,9,11,13,15,17,19,21,23,25,27,29,31,33,35,37,39,41,43,45,47,49,51,-1,53,55,57,59,-1,-1,-1,-1,-1,-1,-1,-1,-1,-1,-1,-1,-1,-1,-1,-1,-1,-1,-1,-1,-1,-1,-1,-1,-1,-1,-1,-1,-1,-1],"loss_changes":[1.0468176E-2,2.0553198E-2,5.9555754E-2,6.383452E-2,3.9901108E-2,8.990317E-2,3.7306674E-2,5.15497E-2,3.4956954E-2,8.750409E-2,4.6729326E-2,1.3417865E-1,8.3089836E-2,8.5787915E-2,5.1091835E-2,6.102832E-2,1.9206569E-2,5.5891104E-2,4.3292012E-2,6.1877437E-2,7.028636E-2,4.3916944E-2,4.668756E-2,8.614671E-2,5.438396E-2,8.06308E-2,0E0,1.19972825E-2,5.661254E-2,1.2366228E-2,3.8259341E-3,0E0,0E0,0E0,0E0,0E0,0E0,0E0,0E0,0E0,0E0,0E0,0E0,0E0,0E0,0E0,0E0,0E0,0E0,0E0,0E0,0E0,0E0,0E0,0E0,0E0,0E0,0E0,0E0,0E0,0E0],"parents":[2147483647,0,0,1,1,2,2,3,3,4,4,5,5,6,6,7,7,8,8,9,9,10,10,11,11,12,12,13,13,14,14,15,15,16,16,17,17,18,18,19,19,20,20,21,21,22,22,23,23,24,24,25,25,27,27,28,28,29,29,30,30],"right_children":[2,4,6,8,10,12,14,16,18,20,22,24,26,28,30,32,34,36,38,40,42,44,46,48,50,52,-1,54,56,58,60,-1,-1,-1,-1,-1,-1,-1,-1,-1,-1,-1,-1,-1,-1,-1,-1,-1,-1,-1,-1,-1,-1,-1,-1,-1,-1,-1,-1,-1,-1],"split_conditions":[1E0,1.31E0,1E0,1.25E0,1.48E0,1.44E0,1E0,1.24E0,1E0,1.42E0,1E0,1.7623257E2,1E0,3.14E0,2.82424E2,1.22E0,1.2E1,1E0,1.5848253E2,1.41E0,1E0,1.55E0,1E0,1E0,2.56E2,6E0,8.4486805E-2,1E0,8E0,1.2E1,5.12E2,2.5727022E-3,-4.1212346E-2,6.5503E-2,-6.304264E-3,-6.2183857E-2,1.3139248E-3,2.28561E-2,-2.6106063E-2,2.9352594E-3,-8.6625814E-2,1.915465E-2,8.339206E-2,-2.7616432E-2,7.202454E-4,-3.236953E-2,6.3083286E-4,8.431133E-2,5.1155887E-3,3.7254907E-2,-2.6683092E-2,1.3764081E-2,-9.512978E-3,3.0257989E-2,3.7439663E-3,1.7091433E-2,-7.542677E-2,-4.6223767E-2,5.92494E-3,-8.592367E-3,1.9215394E-2],"split_indices":[14,1,3,1,1,1,38,1,3,1,26,4,27,1,4,1,0,2,4,1,2,1,3,30,6,0,0,35,6,0,6,0,0,0,0,0,0,0,0,0,0,0,0,0,0,0,0,0,0,0,0,0,0,0,0,0,0,0,0,0,0],"split_type":[0,0,0,0,0,0,0,0,0,0,0,0,0,0,0,0,0,0,0,0,0,0,0,0,0,0,0,0,0,0,0,0,0,0,0,0,0,0,0,0,0,0,0,0,0,0,0,0,0,0,0,0,0,0,0,0,0,0,0,0,0],"sum_hessian":[1.054E3,8.3E2,2.24E2,1.13E2,7.17E2,1.81E2,4.3E1,8E1,3.3E1,7.7E1,6.4E2,2.9E1,1.52E2,2.3E1,2E1,7.6E1,4E0,1.5E1,1.8E1,5.4E1,2.3E1,5.98E2,4.2E1,1.6E1,1.3E1,1.5E2,2E0,1.7E1,6E0,1.5E1,5E0,6.8E1,8E0,3E0,1E0,1E1,5E0,6E0,1.2E1,5.3E1,1E0,1.8E1,5E0,1.3E1,5.85E2,2.2E1,2E1,1.1E1,5E0,4E0,9E0,6.4E1,8.6E1,9E0,8E0,2E0,4E0,1.4E1,1E0,1E0,4E0],"tree_param":{"num_deleted":"0","num_feature":"43","num_nodes":"61","size_leaf_vector":"1"}},{"base_weights":[9.084674E-5,-1.9581628E-4,3.7632346E-2,-2.476818E-5,-2.9884657E-2,3.361845E-2,6.422234E-3,1.6534163E-2,-7.3394075E-4,9.87494E-3,-1.1722088E-2,4.041948E-3,9.289583E-2,-1.9459456E-2,2.2818089E-5,1.7863173E-2,-1.3130164E-2,5.1887035E-2,9.62615E-3,-1.3497365E-2,6.672025E-2,3.0860234E-2,-1.4893974E-4],"categories":[],"categories_nodes":[],"categories_segments":[],"categories_sizes":[],"default_left":[0,0,0,0,0,0,0,0,0,0,0,0,0,0,0,0,0,0,0,0,0,0,0],"id":24,"left_children":[1,3,5,7,-1,-1,9,11,13,-1,-1,15,17,19,21,-1,-1,-1,-1,-1,-1,-1,-1],"loss_changes":[1.1361025E-2,1.067757E-2,6.9598807E-3,1.22954585E-2,0E0,0E0,2.4532645E-3,4.064335E-2,1.4227826E-2,0E0,0E0,3.7422344E-2,2.8087832E-3,4.853577E-2,1.9131936E-2,0E0,0E0,0E0,0E0,0E0,0E0,0E0,0E0],"parents":[2147483647,0,0,1,1,2,2,3,3,6,6,7,7,8,8,11,11,12,12,13,13,14,14],"right_children":[2,4,6,8,-1,-1,10,12,14,-1,-1,16,18,20,22,-1,-1,-1,-1,-1,-1,-1,-1],"split_conditions":[1E0,1E0,1E0,1.16E0,-2.9884657E-2,3.361845E-2,1.2E1,1.13E0,1.24E0,9.87494E-3,-1.1722088E-2,1E0,1.2E1,1E0,1.25E0,1.7863173E-2,-1.3130164E-2,5.1887035E-2,9.62615E-3,-1.3497365E-2,6.672025E-2,3.0860234E-2,-1.4893974E-4],"split_indices":[22,15,38,1,0,0,0,1,1,0,0,3,0,19,1,0,0,0,0,0,0,0,0],"split_type":[0,0,0,0,0,0,0,0,0,0,0,0,0,0,0,0,0,0,0,0,0,0,0],"sum_hessian":[1.054E3,1.047E3,7E0,1.045E3,2E0,3E0,4E0,4.2E1,1.003E3,3E0,1E0,3.7E1,5E0,3.8E1,9.65E2,1.8E1,1.9E1,4E0,1E0,3.7E1,1E0,4E0,9.61E2],"tree_param":{"num_deleted":"0","num_feature":"43","num_nodes":"23","size_leaf_vector":"1"}},{"base_weights":[1.8940966E-4,-3.8499117E-2,3.3569607E-4,2.1331567E-2,-1.9513808E-4,5.5839222E-2,-7.6966602E-3,-2.8199494E-2,2.469377E-4,-4.1856766E-3,6.826277E-2,4.0351655E-2,-6.8373546E-2,-9.592497E-3,-8.162236E-2,6.2264442E-2,-6.032415E-5,5.6521893E-3,-8.791447E-3,4.0559947E-2,5.6114197E-3,2.2507727E-2,7.6031685E-4,-4.3620903E-2,1.1209011E-2,5.1879087E-3,-1.1684835E-2,-4.907481E-2,-8.010149E-3,1.7226577E-2,4.33774E-2,-2.3090811E-3,1.2085027E-3],"categories":[],"categories_nodes":[],"categories_segments":[],"categories_sizes":[],"default_left":[0,0,0,0,0,0,0,0,0,0,0,0,0,0,0,0,0,0,0,0,0,0,0,0,0,0,0,0,0,0,0,0,0],"id":25,"left_children":[1,-1,3,5,7,9,11,13,15,17,19,21,23,25,27,29,31,-1,-1,-1,-1,-1,-1,-1,-1,-1,-1,-1,-1,-1,-1,-1,-1],"loss_changes":[1.1938384E-2,0E0,1.1751336E-2,2.6473872E-2,1.2746032E-2,9.234391E-3,4.649032E-2,1.5121664E-2,1.9326147E-2,8.2133454E-4,6.423302E-3,1.5614498E-3,1.3947342E-2,3.8188691E-3,2.7645025E-3,4.1656382E-4,1.1415343E-2,0E0,0E0,0E0,0E0,0E0,0E0,0E0,0E0,0E0,0E0,0E0,0E0,0E0,0E0,0E0,0E0],"parents":[2147483647,0,0,2,2,3,3,4,4,5,5,6,6,7,7,8,8,9,9,10,10,11,11,12,12,13,13,14,14,15,15,16,16],"right_children":[2,-1,4,6,8,10,12,14,16,18,20,22,24,26,28,30,32,-1,-1,-1,-1,-1,-1,-1,-1,-1,-1,-1,-1,-1,-1,-1,-1],"split_conditions":[6.9E-1,-3.8499117E-2,1.1E0,1.8990579E2,1.13E0,9.1E-1,2.56E2,1E0,1.14E0,1.2E1,1E0,1E0,2.5467136E2,1E0,1.2E1,1E0,1.28E2,5.6521893E-3,-8.791447E-3,4.0559947E-2,5.6114197E-3,2.2507727E-2,7.6031685E-4,-4.3620903E-2,1.1209011E-2,5.1879087E-3,-1.1684835E-2,-4.907481E-2,-8.010149E-3,1.7226577E-2,4.33774E-2,-2.3090811E-3,1.2085027E-3],"split_indices":[1,0,1,4,1,1,6,17,1,0,2,41,4,30,0,34,6,0,0,0,0,0,0,0,0,0,0,0,0,0,0,0,0],"split_type":[0,0,0,0,0,0,0,0,0,0,0,0,0,0,0,0,0,0,0,0,0,0,0,0,0,0,0,0,0,0,0,0,0],"sum_hessian":[1.054E3,1E0,1.053E3,2.5E1,1.028E3,1.1E1,1.4E1,1.5E1,1.013E3,2E0,9E0,8E0,6E0,1.2E1,3E0,4E0,1.009E3,1E0,1E0,7E0,2E0,7E0,1E0,5E0,1E0,5E0,7E0,2E0,1E0,3E0,1E0,3.55E2,6.54E2],"tree_param":{"num_deleted":"0","num_feature":"43","num_nodes":"33","size_leaf_vector":"1"}},{"base_weights":[8.651137E-5,-3.650828E-4,2.0365218E-2,3.4454107E-2,-4.989796E-4,-4.9014807E-2,3.3222962E-2,3.161727E-2,-7.8076404E-4,-3.4419697E-2,2.6147366E-3,1.4593198E-2,5.9343457E-2,6.5755844E-3,7.950878E-2,-5.8128504E-4,-4.131832E-2,5.2313328E-2,-1.9541741E-3,7.074404E-2,1.6761145E-2,-7.1188607E-3,8.874225E-3,4.7479153E-2,1.2152433E-2,-2.0481538E-4,-2.2039533E-2,-3.7554104E-3,-3.0676523E-2,3.5075348E-2,-2.9969215E-4,5.8902632E-3,-3.139162E-2,9.894053E-3,4.563749E-2,-3.0639172E-3,1.5634775E-2],"categories":[],"categories_nodes":[],"categories_segments":[],"categories_sizes":[],"default_left":[0,0,0,0,0,0,0,0,0,0,0,0,0,0,0,0,0,0,0,0,0,0,0,0,0,0,0,0,0,0,0,0,0,0,0,0,0],"id":26,"left_children":[1,3,5,-1,7,9,11,13,15,-1,-1,17,19,21,23,25,27,29,31,33,35,-1,-1,-1,-1,-1,-1,-1,-1,-1,-1,-1,-1,-1,-1,-1,-1],"loss_changes":[9.668856E-3,9.615948E-3,2.2146039E-2,0E0,9.36414E-3,4.6614753E-3,8.866362E-3,1.0270742E-2,8.256446E-3,0E0,0E0,8.216426E-3,2.697954E-3,1.8805075E-3,2.5067478E-4,7.5978558E-3,2.9258076E-3,3.8173413E-3,9.09431E-3,4.4708773E-3,1.1878624E-3,0E0,0E0,0E0,0E0,0E0,0E0,0E0,0E0,0E0,0E0,0E0,0E0,0E0,0E0,0E0,0E0],"parents":[2147483647,0,0,1,1,2,2,4,4,5,5,6,6,7,7,8,8,11,11,12,12,13,13,14,14,15,15,16,16,17,17,18,18,19,19,20,20],"right_children":[2,4,6,-1,8,10,12,14,16,-1,-1,18,20,22,24,26,28,30,32,34,36,-1,-1,-1,-1,-1,-1,-1,-1,-1,-1,-1,-1,-1,-1,-1,-1],"split_conditions":[1E0,2E0,1E0,3.4454107E-2,1.00454666E2,2.32E0,1E0,1E0,1E0,-3.4419697E-2,2.6147366E-3,1E0,1.4686047E2,6.1879414E1,2.03E0,1E0,1.31E0,1.2E1,3.2E1,2.02E0,2.31E0,-7.1188607E-3,8.874225E-3,4.7479153E-2,1.2152433E-2,-2.0481538E-4,-2.2039533E-2,-3.7554104E-3,-3.0676523E-2,3.5075348E-2,-2.9969215E-4,5.8902632E-3,-3.139162E-2,9.894053E-3,4.563749E-2,-3.0639172E-3,1.5634775E-2],"split_indices":[31,0,39,0,4,1,3,34,24,0,0,35,4,4,1,10,1,0,5,1,1,0,0,0,0,0,0,0,0,0,0,0,0,0,0,0,0],"split_type":[0,0,0,0,0,0,0,0,0,0,0,0,0,0,0,0,0,0,0,0,0,0,0,0,0,0,0,0,0,0,0,0,0,0,0,0,0],"sum_hessian":[1.054E3,1.032E3,2.2E1,1E0,1.031E3,3E0,1.9E1,8E0,1.023E3,2E0,1E0,1.2E1,7E0,6E0,2E0,1.019E3,4E0,3E0,9E0,5E0,2E0,2E0,4E0,1E0,1E0,1.016E3,3E0,2E0,2E0,2E0,1E0,8E0,1E0,2E0,3E0,1E0,1E0],"tree_param":{"num_deleted":"0","num_feature":"43","num_nodes":"37","size_leaf_vector":"1"}},{"base_weights":[1.2379777E-4,4.7850978E-4,-1.8256474E-2,3.600586E-3,-1.6136998E-3,-3.1363998E-2,1.7555078E-2,1.6172552E-3,3.1026125E-2,-6.5179534E-2,-2.5414402E-4,-4.6815872E-4,-3.881486E-2,-1.3109922E-2,3.1554032E-2,3.6563068E-3,-3.0989232E-2,-7.3128613E-3,1.4708778E-1,-9.480624E-2,6.517824E-2,3.5862334E-2,-1.5413967E-3,-5.9792995E-2,1.6749313E-2,2.1742344E-2,4.5526824E-3,8.419364E-4,3.093358E-2,1.6772588E-3,-4.2392783E-2,-3.0411668E-2,1.3804538E-2,9.3533754E-2,-2.319765E-2,-2.1632459E-2,-1.08914055E-1,8.964062E-3,3.9919615E-2,2.3388624E-2,-4.5608997E-2,-4.0419895E-2,-3.6202391E-4,-4.033041E-2,-1.2975057E-2],"categories":[],"categories_nodes":[],"categories_segments":[],"categories_sizes":[],"default_left":[0,0,0,0,0,0,0,0,0,0,0,0,0,0,0,0,0,0,0,0,0,0,0,0,0,0,0,0,0,0,0,0,0,0,0,0,0,0,0,0,0,0,0,0,0],"id":27,"left_children":[1,3,5,7,9,11,13,15,17,19,21,23,-1,-1,25,27,29,31,33,35,37,39,41,43,-1,-1,-1,-1,-1,-1,-1,-1,-1,-1,-1,-1,-1,-1,-1,-1,-1,-1,-1,-1,-1],"loss_changes":[6.887022E-3,6.773002E-3,9.938611E-3,2.257769E-2,5.365106E-2,2.1404933E-2,4.5041605E-3,2.5976483E-2,1.2566686E-1,5.638623E-2,2.8368317E-2,2.2153724E-2,0E0,0E0,9.4319275E-4,4.203369E-2,4.2778477E-2,4.2790443E-2,6.282686E-2,6.0323484E-2,6.4683426E-4,3.3395417E-2,3.8117185E-2,7.317513E-4,0E0,0E0,0E0,0E0,0E0,0E0,0E0,0E0,0E0,0E0,0E0,0E0,0E0,0E0,0E0,0E0,0E0,0E0,0E0,0E0,0E0],"parents":[2147483647,0,0,1,1,2,2,3,3,4,4,5,5,6,6,7,7,8,8,9,9,10,10,11,11,14,14,15,15,16,16,17,17,18,18,19,19,20,20,21,21,22,22,23,23],"right_children":[2,4,6,8,10,12,14,16,18,20,22,24,-1,-1,26,28,30,32,34,36,38,40,42,44,-1,-1,-1,-1,-1,-1,-1,-1,-1,-1,-1,-1,-1,-1,-1,-1,-1,-1,-1,-1,-1],"split_conditions":[1E0,1.91E0,5.12E2,1.88E0,1.93E0,8E0,9.7E-1,1.86E0,1E0,3.2E1,1.96E0,1.3509421E2,-3.881486E-2,-1.3109922E-2,1.2E1,1.83E0,1E0,1E0,1E0,1E0,1.2E1,1E3,1.98E0,1.35E0,1.6749313E-2,2.1742344E-2,4.5526824E-3,8.419364E-4,3.093358E-2,1.6772588E-3,-4.2392783E-2,-3.0411668E-2,1.3804538E-2,9.3533754E-2,-2.319765E-2,-2.1632459E-2,-1.08914055E-1,8.964062E-3,3.9919615E-2,2.3388624E-2,-4.5608997E-2,-4.0419895E-2,-3.6202391E-4,-4.033041E-2,-1.2975057E-2],"split_indices":[8,1,6,1,1,6,1,1,14,5,1,4,0,0,0,1,34,34,31,35,0,5,1,1,0,0,0,0,0,0,0,0,0,0,0,0,0,0,0,0,0,0,0,0,0],"split_type":[0,0,0,0,0,0,0,0,0,0,0,0,0,0,0,0,0,0,0,0,0,0,0,0,0,0,0,0,0,0,0,0,0,0,0,0,0,0,0,0,0,0,0,0,0],"sum_hessian":[1.054E3,1.035E3,1.9E1,4.15E2,6.2E2,1.4E1,5E0,3.88E2,2.7E1,1.2E1,6.08E2,9E0,5E0,1E0,4E0,3.66E2,2.2E1,2.1E1,6E0,1E1,2E0,2E1,5.88E2,3E0,6E0,2E0,2E0,3.55E2,1.1E1,1.4E1,8E0,8E0,1.3E1,5E0,1E0,8E0,2E0,1E0,1E0,1.9E1,1E0,5E0,5.83E2,1E0,2E0],"tree_param":{"num_deleted":"0","num_feature":"43","num_nodes":"45","size_leaf_vector":"1"}},{"base_weights":[-9.1570815E-5,-1.1601218E-3,7.725558E-3,3.5935284E-3,-3.3886745E-3,3.1681634E-2,-3.2513575E-3,-6.8852425E-2,4.5361067E-3,-4.3792324E-3,4.072094E-2,1.8241145E-2,7.0178986E-2,-1.7001666E-2,3.0191751E-2,2.0593042E-3,8.328978E-2,-1.3437425E-3,-3.0729055E-2,7.1521915E-2,-9.605662E-2,4.0663935E-2,-3.291311E-2,8.3573766E-2,-1.2593508E-2,-2.4072664E-2,6.983642E-2,5.1091075E-2,-1.7090346E-3,-2.5640726E-2,2.5889794E-3,1.9390583E-3,6.117463E-2,-1.0552563E-3,1.682814E-2,-5.1735127E-3,-3.3306185E-2,5.422054E-2,8.264621E-3,-1.0237217E-2,-6.180525E-2,-5.784154E-3,3.29051E-2,-2.3724556E-2,8.410295E-3,5.1030908E-2,6.2885284E-3,-5.3905487E-2,-9.621528E-3,4.4282675E-2,-1.2698174E-3,1.8245133E-2,-2.410359E-2],"categories":[],"categories_nodes":[],"categories_segments":[],"categories_sizes":[],"default_left":[0,0,0,0,0,0,0,0,0,0,0,0,0,0,0,0,0,0,0,0,0,0,0,0,0,0,0,0,0,0,0,0,0,0,0,0,0,0,0,0,0,0,0,0,0,0,0,0,0,0,0,0,0],"id":28,"left_children":[1,3,5,7,9,11,13,-1,15,17,19,21,23,25,27,29,31,33,35,37,39,41,43,45,-1,47,49,-1,51,-1,-1,-1,-1,-1,-1,-1,-1,-1,-1,-1,-1,-1,-1,-1,-1,-1,-1,-1,-1,-1,-1,-1,-1],"loss_changes":[8.8213775E-3,9.85378E-3,3.3499412E-2,4.018053E-2,2.7836077E-2,1.9416783E-2,4.098038E-2,0E0,5.756545E-2,4.954917E-2,6.585051E-2,3.6896035E-2,1.4879048E-2,4.0365152E-2,5.9884936E-2,4.817474E-2,2.744152E-2,1.5019226E-2,4.611875E-2,2.2570953E-2,3.7168916E-3,2.9657122E-2,8.027413E-3,1.0529682E-2,0E0,2.178635E-2,7.002555E-3,0E0,3.5506826E-2,0E0,0E0,0E0,0E0,0E0,0E0,0E0,0E0,0E0,0E0,0E0,0E0,0E0,0E0,0E0,0E0,0E0,0E0,0E0,0E0,0E0,0E0,0E0,0E0],"parents":[2147483647,0,0,1,1,2,2,3,3,4,4,5,5,6,6,8,8,9,9,10,10,11,11,12,12,13,13,14,14,15,15,16,16,17,17,18,18,19,19,20,20,21,21,22,22,23,23,25,25,26,26,28,28],"right_children":[2,4,6,8,10,12,14,-1,16,18,20,22,24,26,28,30,32,34,36,38,40,42,44,46,-1,48,50,-1,52,-1,-1,-1,-1,-1,-1,-1,-1,-1,-1,-1,-1,-1,-1,-1,-1,-1,-1,-1,-1,-1,-1,-1,-1],"split_conditions":[1E0,1.2767794E2,1.96E0,1.21E0,2E3,1E0,3.2E1,-6.8852425E-2,1E0,1E0,1E0,8E0,2.3497676E2,1E0,6E0,1.59E0,1.2536743E2,3.35E0,1E0,2.23E0,6E0,1.27E0,1.2E1,1E0,-1.2593508E-2,3.2E1,1.2E1,5.1091075E-2,1E0,-2.5640726E-2,2.5889794E-3,1.9390583E-3,6.117463E-2,-1.0552563E-3,1.682814E-2,-5.1735127E-3,-3.3306185E-2,5.422054E-2,8.264621E-3,-1.0237217E-2,-6.180525E-2,-5.784154E-3,3.29051E-2,-2.3724556E-2,8.410295E-3,5.1030908E-2,6.2885284E-3,-5.3905487E-2,-9.621528E-3,4.4282675E-2,-1.2698174E-3,1.8245133E-2,-2.410359E-2],"split_indices":[41,4,1,1,5,34,6,0,30,37,17,6,4,3,0,1,4,1,11,1,0,1,0,14,0,5,0,0,34,0,0,0,0,0,0,0,0,0,0,0,0,0,0,0,0,0,0,0,0,0,0,0,0],"split_type":[0,0,0,0,0,0,0,0,0,0,0,0,0,0,0,0,0,0,0,0,0,0,0,0,0,0,0,0,0,0,0,0,0,0,0,0,0,0,0,0,0,0,0,0,0,0,0,0,0,0,0,0,0],"sum_hessian":[1.054E3,9.28E2,1.26E2,2.96E2,6.32E2,3.9E1,8.7E1,1E0,2.95E2,6.19E2,1.3E1,3E1,9E0,6.2E1,2.5E1,2.87E2,8E0,5.56E2,6.3E1,1.1E1,2E0,2.1E1,9E0,8E0,1E0,5.8E1,4E0,7E0,1.8E1,1.5E1,2.72E2,3E0,5E0,5.45E2,1.1E1,4.1E1,2.2E1,6E0,5E0,1E0,1E0,7E0,1.4E1,7E0,2E0,6E0,2E0,2E0,5.6E1,3E0,1E0,1E1,8E0],"tree_param":{"num_deleted":"0","num_feature":"43","num_nodes":"53","size_leaf_vector":"1"}},{"base_weights":[-2.6466045E-5,1.3785334E-3,-6.4714826E-3,2.7512322E-4,4.5817103E-2,-1.2950541E-2,3.861165E-2,-3.2296934E-4,4.191931E-2,8.066543E-2,-5.8259966E-4,-3.6142194E-3,-5.0469223E-2,1.2909236E-2,1.1356735E-1,-2.8931093E-3,7.705562E-3,1.942285E-2,4.102826E-2,1.1499034E-1,-1.6731977E-2,1.2131095E-2,-1.4696394E-2,5.3640397E-4,-6.1321363E-2,-1.0289037E-1,-3.239852E-2,7.720542E-2,-3.9716363E-3,1.0298189E-1,1.58782E-2,-3.4764425E-3,3.8974162E-3,4.9176835E-3,-5.0355554E-2,1.391232E-2,-1.194787E-2,6.4816475E-2,-5.376339E-4,-1.7819246E-2,9.996891E-3,7.440408E-3,-1.475172E-2,-1.1036495E-3,2.7889172E-2,4.278183E-3,-5.9467413E-2,-7.4374676E-2,-9.922028E-3,1.6611418E-2,-1.9625625E-2,4.746008E-2,6.0153008E-3,6.613168E-3,-1.7419657E-2,1.1178811E-2,-8.9001656E-4],"categories":[],"categories_nodes":[],"categories_segments":[],"categories_sizes":[],"default_left":[0,0,0,0,0,0,0,0,0,0,0,0,0,0,0,0,0,0,0,0,0,0,0,0,0,0,0,0,0,0,0,0,0,0,0,0,0,0,0,0,0,0,0,0,0,0,0,0,0,0,0,0,0,0,0,0,0],"id":29,"left_children":[1,3,5,7,9,11,13,15,17,19,21,23,25,27,29,31,33,35,-1,37,39,-1,41,43,45,47,49,51,53,-1,55,-1,-1,-1,-1,-1,-1,-1,-1,-1,-1,-1,-1,-1,-1,-1,-1,-1,-1,-1,-1,-1,-1,-1,-1,-1,-1],"loss_changes":[9.562205E-3,4.249985E-2,5.570623E-2,2.1109832E-2,3.4002993E-2,5.7965152E-2,4.4770952E-2,1.7272694E-2,9.241572E-3,4.2041898E-2,3.863109E-3,3.2128654E-2,2.7926981E-2,2.092877E-2,5.0886437E-2,2.7563863E-2,4.7864534E-2,3.9404742E-3,0E0,1.5434928E-2,3.4899726E-3,0E0,3.5046933E-3,1.922062E-2,3.7250727E-2,2.7515568E-2,1.2995858E-2,3.4762714E-3,8.95458E-3,0E0,4.974579E-4,0E0,0E0,0E0,0E0,0E0,0E0,0E0,0E0,0E0,0E0,0E0,0E0,0E0,0E0,0E0,0E0,0E0,0E0,0E0,0E0,0E0,0E0,0E0,0E0,0E0,0E0],"parents":[2147483647,0,0,1,1,2,2,3,3,4,4,5,5,6,6,7,7,8,8,9,9,10,10,11,11,12,12,13,13,14,14,15,15,16,16,17,17,19,19,20,20,22,22,23,23,24,24,25,25,26,26,27,27,28,28,30,30],"right_children":[2,4,6,8,10,12,14,16,18,20,22,24,26,28,30,32,34,36,-1,38,40,-1,42,44,46,48,50,52,54,-1,56,-1,-1,-1,-1,-1,-1,-1,-1,-1,-1,-1,-1,-1,-1,-1,-1,-1,-1,-1,-1,-1,-1,-1,-1,-1,-1],"split_conditions":[1.6E1,1.2E1,1E0,2.82424E2,1E0,1E0,1E0,1E0,2.02E0,1E0,1.2767794E2,1E0,5.12E2,1.8E2,1.4686047E2,1E0,2.7605353E2,1.79E0,4.102826E-2,1E0,2.31E0,1.2131095E-2,2.07E0,2E3,1.31E0,3.21E0,1.2767794E2,2E3,2.23E0,1.0298189E-1,2.43E0,-3.4764425E-3,3.8974162E-3,4.9176835E-3,-5.0355554E-2,1.391232E-2,-1.194787E-2,6.4816475E-2,-5.376339E-4,-1.7819246E-2,9.996891E-3,7.440408E-3,-1.475172E-2,-1.1036495E-3,2.7889172E-2,4.278183E-3,-5.9467413E-2,-7.4374676E-2,-9.922028E-3,1.6611418E-2,-1.9625625E-2,4.746008E-2,6.0153008E-3,6.613168E-3,-1.7419657E-2,1.1178811E-2,-8.9001656E-4],"split_indices":[0,0,29,4,3,17,17,3,1,26,4,14,6,6,4,14,4,1,0,32,1,0,1,5,1,1,4,5,1,0,1,0,0,0,0,0,0,0,0,0,0,0,0,0,0,0,0,0,0,0,0,0,0,0,0,0,0],"split_type":[0,0,0,0,0,0,0,0,0,0,0,0,0,0,0,0,0,0,0,0,0,0,0,0,0,0,0,0,0,0,0,0,0,0,0,0,0,0,0,0,0,0,0,0,0,0,0,0,0,0,0,0,0,0,0,0,0],"sum_hessian":[1.054E3,8.66E2,1.88E2,8.46E2,2E1,1.65E2,2.3E1,8.35E2,1.1E1,1.1E1,9E0,1.33E2,3.2E1,1.8E1,5E0,6.33E2,2.02E2,8E0,3E0,8E0,3E0,3E0,6E0,1.25E2,8E0,7E0,2.5E1,3E0,1.5E1,2E0,3E0,4.59E2,1.74E2,1.99E2,3E0,7E0,1E0,7E0,1E0,2E0,1E0,2E0,4E0,1.2E2,5E0,4E0,4E0,4E0,3E0,2E0,2.3E1,2E0,1E0,1E1,5E0,2E0,1E0],"tree_param":{"num_deleted":"0","num_feature":"43","num_nodes":"57","size_leaf_vector":"1"}},{"base_weights":[8.078661E-5,-1.6240013E-3,4.3566474E-3,-1.0028076E-3,-5.95026E-2,3.419341E-2,-1.7231603E-3,-3.8265227E-3,9.481436E-3,-3.3703327E-2,-1.0435581E-3,5.3012494E-2,-5.951924E-2,-4.6898187E-3,2.6531896E-2,-2.7146752E-3,-6.2103357E-2,3.8823944E-3,4.4171724E-2,4.0072322E-2,8.458054E-2,8.689642E-3,-9.507195E-2,-1.6118212E-2,6.2902644E-3,3.842921E-2,-2.6363755E-2,-1.5518417E-3,3.6569595E-2,7.0975623E-3,-6.402564E-2,4.8407217E-4,3.3917267E-2,4.5874536E-2,7.926178E-3,2.8789353E-2,-2.5341647E-2,-2.0254612E-2,1.929617E-2,-6.453562E-2,-2.290225E-2,2.1140037E-4,-1.7955424E-2,4.580878E-3,-3.8559914E-2,2.8719902E-2,6.8373205E-3,-6.994009E-3,-1.8966675E-2],"categories":[],"categories_nodes":[],"categories_segments":[],"categories_sizes":[],"default_left":[0,0,0,0,0,0,0,0,0,0,0,0,0,0,0,0,0,0,0,0,0,0,0,0,0,0,0,0,0,0,0,0,0,0,0,0,0,0,0,0,0,0,0,0,0,0,0,0,0],"id":30,"left_children":[1,3,5,7,9,11,13,15,17,-1,-1,19,21,23,25,27,29,31,33,35,-1,37,39,41,43,45,47,-1,-1,-1,-1,-1,-1,-1,-1,-1,-1,-1,-1,-1,-1,-1,-1,-1,-1,-1,-1,-1,-1],"loss_changes":[7.6974295E-3,2.7085463E-2,5.466086E-2,2.218046E-2,3.4898333E-3,9.309815E-2,2.116403E-2,3.806044E-2,3.0711453E-2,0E0,0E0,5.784958E-2,2.265124E-2,2.8711902E-2,1.6116729E-2,1.7341524E-2,5.7166684E-2,2.5653735E-2,2.8187491E-2,6.647038E-2,0E0,7.448061E-3,4.138302E-3,3.6682896E-2,2.872939E-2,8.626513E-3,1.8529897E-4,0E0,0E0,0E0,0E0,0E0,0E0,0E0,0E0,0E0,0E0,0E0,0E0,0E0,0E0,0E0,0E0,0E0,0E0,0E0,0E0,0E0,0E0],"parents":[2147483647,0,0,1,1,2,2,3,3,4,4,5,5,6,6,7,7,8,8,11,11,12,12,13,13,14,14,15,15,16,16,17,17,18,18,19,19,21,21,22,22,23,23,24,24,25,25,26,26],"right_children":[2,4,6,8,10,12,14,16,18,-1,-1,20,22,24,26,28,30,32,34,36,-1,38,40,42,44,46,48,-1,-1,-1,-1,-1,-1,-1,-1,-1,-1,-1,-1,-1,-1,-1,-1,-1,-1,-1,-1,-1,-1],"split_conditions":[2.3E0,2.25E0,2.4E0,1E0,2.29E0,1E0,1E0,2E3,1E0,-3.3703327E-2,-1.0435581E-3,1E0,1E0,2.73E0,1E0,2.24E0,1E0,2E3,1E0,1E0,8.458054E-2,3.2E1,6E0,1.8E2,2.6733844E2,1E0,1E0,-1.5518417E-3,3.6569595E-2,7.0975623E-3,-6.402564E-2,4.8407217E-4,3.3917267E-2,4.5874536E-2,7.926178E-3,2.8789353E-2,-2.5341647E-2,-2.0254612E-2,1.929617E-2,-6.453562E-2,-2.290225E-2,2.1140037E-4,-1.7955424E-2,4.580878E-3,-3.8559914E-2,2.8719902E-2,6.8373205E-3,-6.994009E-3,-1.8966675E-2],"split_indices":[1,1,1,11,1,33,41,5,39,0,0,27,38,1,11,1,38,5,35,9,0,5,0,6,4,34,3,0,0,0,0,0,0,0,0,0,0,0,0,0,0,0,0,0,0,0,0,0,0],"split_type":[0,0,0,0,0,0,0,0,0,0,0,0,0,0,0,0,0,0,0,0,0,0,0,0,0,0,0,0,0,0,0,0,0,0,0,0,0,0,0,0,0,0,0,0,0,0,0,0,0],"sum_hessian":[1.054E3,7.54E2,3E2,7.47E2,7E0,5E1,2.5E2,5.89E2,1.58E2,6E0,1E0,4.2E1,8E0,2.27E2,2.3E1,5.79E2,1E1,1.37E2,2.1E1,3.9E1,3E0,3E0,5E0,1.11E2,1.16E2,1.9E1,4E0,5.77E2,2E0,5E0,5E0,1.32E2,5E0,7E0,1.4E1,3.3E1,6E0,1E0,2E0,2E0,3E0,6.1E1,5E1,1.13E2,3E0,1E1,9E0,3E0,1E0],"tree_param":{"num_deleted":"0","num_feature":"43","num_nodes":"49","size_leaf_vector":"1"}},{"base_weights":[2.9892944E-5,-1.1386333E-3,9.40781E-3,5.6122917E-5,-1.7204372E-2,1.7879963E-2,-1.3655096E-2,2.4092675E-4,-5.37405E-2,-7.4925E-2,-7.7887587E-3,2.5165332E-2,-3.4080766E-2,-7.2286196E-2,2.655396E-3,1.3914084E-3,-7.751881E-3,-3.6949873E-2,-3.355503E-3,2.5052309E-2,-9.681678E-2,1.0985411E-2,-2.2799373E-2,-6.367326E-3,3.8969453E-2,-5.460768E-2,2.4455478E-2,-8.661572E-2,3.4227371E-3,2.0530837E-2,-6.035121E-2,1.7297553E-3,-3.6562642E-3,-2.4924397E-2,-2.9013783E-4,3.8433075E-4,-5.5433683E-2,-8.020091E-3,4.3316025E-2,-2.735734E-2,4.2898515E-3,-1.1253238E-2,4.5100725E-3,1.643578E-2,4.5467474E-2,4.8380853E-3,2.0467917E-2,-1.2202899E-2,-5.5809617E-2,2.1755164E-3,4.4103622E-2,-1.3426621E-2,-3.5193443E-2],"categories":[],"categories_nodes":[],"categories_segments":[],"categories_sizes":[],"default_left":[0,0,0,0,0,0,0,0,0,0,0,0,0,0,0,0,0,0,0,0,0,0,0,0,0,0,0,0,0,0,0,0,0,0,0,0,0,0,0,0,0,0,0,0,0,0,0,0,0,0,0,0,0],"id":31,"left_children":[1,3,5,7,9,11,13,15,17,19,21,23,25,27,29,31,33,-1,-1,-1,35,37,39,41,43,-1,45,47,-1,49,51,-1,-1,-1,-1,-1,-1,-1,-1,-1,-1,-1,-1,-1,-1,-1,-1,-1,-1,-1,-1,-1,-1],"loss_changes":[1.1571763E-2,1.8024733E-2,2.310507E-2,8.712043E-3,3.4742314E-2,3.3413224E-2,3.0793613E-2,8.0385255E-3,2.3482963E-3,2.9485058E-2,1.6313735E-2,3.3329464E-2,5.1049978E-2,8.530363E-3,3.0522104E-2,1.377778E-2,3.318034E-2,0E0,0E0,0E0,1.1054285E-2,5.4543868E-2,3.2516565E-2,6.1631883E-3,1.3805471E-2,0E0,1.3088756E-3,6.6086426E-3,0E0,2.2611016E-2,1.2693368E-4,0E0,0E0,0E0,0E0,0E0,0E0,0E0,0E0,0E0,0E0,0E0,0E0,0E0,0E0,0E0,0E0,0E0,0E0,0E0,0E0,0E0,0E0],"parents":[2147483647,0,0,1,1,2,2,3,3,4,4,5,5,6,6,7,7,8,8,9,9,10,10,11,11,12,12,13,13,14,14,15,15,16,16,20,20,21,21,22,22,23,23,24,24,26,26,27,27,29,29,30,30],"right_children":[2,4,6,8,10,12,14,16,18,20,22,24,26,28,30,32,34,-1,-1,-1,36,38,40,42,44,-1,46,48,-1,50,52,-1,-1,-1,-1,-1,-1,-1,-1,-1,-1,-1,-1,-1,-1,-1,-1,-1,-1,-1,-1,-1,-1],"split_conditions":[1E0,1E0,8E0,1E0,1.62E0,8E0,1E0,1E0,6E0,2E0,2.23E0,1.41E0,1.1782653E2,1E0,1E0,1.6E1,1.1782653E2,-3.6949873E-2,-3.355503E-3,2.5052309E-2,1.21E0,1E0,1E3,1E0,1E0,-5.460768E-2,9.7E-1,4E0,3.4227371E-3,1E0,1.41212E2,1.7297553E-3,-3.6562642E-3,-2.4924397E-2,-2.9013783E-4,3.8433075E-4,-5.5433683E-2,-8.020091E-3,4.3316025E-2,-2.735734E-2,4.2898515E-3,-1.1253238E-2,4.5100725E-3,1.643578E-2,4.5467474E-2,4.8380853E-3,2.0467917E-2,-1.2202899E-2,-5.5809617E-2,2.1755164E-3,4.4103622E-2,-1.3426621E-2,-3.5193443E-2],"split_indices":[36,7,6,12,1,0,42,9,0,0,1,1,4,14,17,0,4,0,0,0,1,32,5,3,14,0,1,0,0,28,4,0,0,0,0,0,0,0,0,0,0,0,0,0,0,0,0,0,0,0,0,0,0],"split_type":[0,0,0,0,0,0,0,0,0,0,0,0,0,0,0,0,0,0,0,0,0,0,0,0,0,0,0,0,0,0,0,0,0,0,0,0,0,0,0,0,0,0,0,0,0,0,0,0,0,0,0,0,0],"sum_hessian":[1.054E3,9.38E2,1.16E2,8.74E2,6.4E1,8.5E1,3.1E1,8.72E2,2E0,8E0,5.6E1,7.5E1,1E1,6E0,2.5E1,7.63E2,1.09E2,1E0,1E0,1E0,7E0,2.5E1,3.1E1,2.3E1,5.2E1,4E0,6E0,5E0,1E0,2E1,5E0,6.17E2,1.46E2,1.5E1,9.4E1,1E0,6E0,1.9E1,6E0,1.5E1,1.6E1,1.1E1,1.2E1,4.8E1,4E0,4E0,2E0,2E0,3E0,1.7E1,3E0,2E0,3E0],"tree_param":{"num_deleted":"0","num_feature":"43","num_nodes":"53","size_leaf_vector":"1"}},{"base_weights":[-1.0486531E-4,-1.1764558E-3,7.1449E-3,-3.9343254E-4,-2.2211248E-2,1.225559E-2,-1.3941058E-2,-1.719228E-3,2.8512197E-2,-2.7377397E-2,3.5776377E-2,-5.132117E-3,2.226474E-2,4.405419E-2,-2.912426E-2,-2.9276198E-4,-1.583383E-2,-4.7367095E-4,7.492116E-2,-1.636459E-2,-9.21936E-2,3.4371376E-2,-1.731658E-2,2.9319732E-2,-1.4277697E-2,5.9487343E-2,8.7919235E-3,-1.4187981E-2,-3.3294838E-2,-1.1415307E-3,7.4183834E-3,8.932726E-3,-2.114011E-2,-5.4329834E-3,6.2235355E-2,4.763663E-2,-2.432704E-3,-3.5384672E-3,-3.1622507E-2,2.5961876E-2,-2.4690628E-3,-1.2353243E-2,9.41205E-3,3.2977004E-2,8.766392E-3,3.2553142E-3,-2.8741002E-2,3.6471844E-2,4.7795773E-3,9.3643665E-3,-2.770424E-3,-1.01926625E-2,2.124238E-2],"categories":[],"categories_nodes":[],"categories_segments":[],"categories_sizes":[],"default_left":[0,0,0,0,0,0,0,0,0,0,0,0,0,0,0,0,0,0,0,0,0,0,0,0,0,0,0,0,0,0,0,0,0,0,0,0,0,0,0,0,0,0,0,0,0,0,0,0,0,0,0,0,0],"id":32,"left_children":[1,3,5,7,9,11,13,15,17,19,-1,21,23,25,27,29,31,33,35,37,-1,39,41,43,45,47,49,51,-1,-1,-1,-1,-1,-1,-1,-1,-1,-1,-1,-1,-1,-1,-1,-1,-1,-1,-1,-1,-1,-1,-1,-1,-1],"loss_changes":[8.2044685E-3,1.5144331E-2,1.4826734E-2,3.40798E-2,1.7944086E-2,1.9258242E-2,2.5057994E-2,1.7109264E-2,5.2498456E-2,5.231438E-2,0E0,2.0329677E-2,1.846508E-2,2.7422393E-3,1.1366291E-2,2.3310676E-2,7.027085E-2,3.381397E-2,2.4820894E-2,1.30501045E-2,0E0,7.156158E-3,9.01152E-3,2.4320204E-2,1.1151986E-2,1.9901246E-3,5.3103914E-4,6.836814E-3,0E0,0E0,0E0,0E0,0E0,0E0,0E0,0E0,0E0,0E0,0E0,0E0,0E0,0E0,0E0,0E0,0E0,0E0,0E0,0E0,0E0,0E0,0E0,0E0,0E0],"parents":[2147483647,0,0,1,1,2,2,3,3,4,4,5,5,6,6,7,7,8,8,9,9,11,11,12,12,13,13,14,14,15,15,16,16,17,17,18,18,19,19,21,21,22,22,23,23,24,24,25,25,26,26,27,27],"right_children":[2,4,6,8,10,12,14,16,18,20,-1,22,24,26,28,30,32,34,36,38,-1,40,42,44,46,48,50,52,-1,-1,-1,-1,-1,-1,-1,-1,-1,-1,-1,-1,-1,-1,-1,-1,-1,-1,-1,-1,-1,-1,-1,-1,-1],"split_conditions":[5.12E2,2.26983E2,1E0,1.7623257E2,3.25E0,1.37E0,1.25E0,1.5848253E2,1E0,2.83E0,3.5776377E-2,1.5848253E2,1E0,1.21E0,1E0,1.5735051E2,1.3E0,1.37E0,2.2053462E2,1E0,-9.21936E-2,1E0,2.82424E2,1.2E1,1.64E0,7.68E2,1.2E1,1E0,-3.3294838E-2,-1.1415307E-3,7.4183834E-3,8.932726E-3,-2.114011E-2,-5.4329834E-3,6.2235355E-2,4.763663E-2,-2.432704E-3,-3.5384672E-3,-3.1622507E-2,2.5961876E-2,-2.4690628E-3,-1.2353243E-2,9.41205E-3,3.2977004E-2,8.766392E-3,3.2553142E-3,-2.8741002E-2,3.6471844E-2,4.7795773E-3,9.3643665E-3,-2.770424E-3,-1.01926625E-2,2.124238E-2],"split_indices":[6,4,11,4,1,1,1,4,35,1,0,4,14,1,38,4,1,1,4,26,0,2,4,0,1,6,0,31,0,0,0,0,0,0,0,0,0,0,0,0,0,0,0,0,0,0,0,0,0,0,0,0,0],"split_type":[0,0,0,0,0,0,0,0,0,0,0,0,0,0,0,0,0,0,0,0,0,0,0,0,0,0,0,0,0,0,0,0,0,0,0,0,0,0,0,0,0,0,0,0,0,0,0,0,0,0,0,0,0],"sum_hessian":[1.054E3,9.19E2,1.35E2,8.87E2,3.2E1,1.09E2,2.6E1,8.49E2,3.8E1,3.1E1,1E0,4E1,6.9E1,5E0,2.1E1,7.72E2,7.7E1,2.4E1,1.4E1,3E1,1E0,9E0,3.1E1,5.8E1,1.1E1,3E0,2E0,1.6E1,5E0,6.83E2,8.9E1,3.4E1,4.3E1,2.3E1,1E0,1.1E1,3E0,2.6E1,4E0,6E0,3E0,2.6E1,5E0,1.3E1,4.5E1,8E0,3E0,2E0,1E0,1E0,1E0,1.5E1,1E0],"tree_param":{"num_deleted":"0","num_feature":"43","num_nodes":"53","size_leaf_vector":"1"}},{"base_weights":[1.09649945E-5,3.986506E-3,-2.242251E-3,-2.566638E-2,5.6092916E-3,5.308929E-3,-5.554193E-3,-1.4339129E-2,-8.5074425E-2,7.1110725E-3,-2.3569902E-2,2.1197143E-4,3.7703447E-2,-5.1247317E-2,-3.8271793E-3,-2.8103828E-2,1.1305945E-2,-1.3276339E-2,-5.052948E-2,6.086894E-3,5.5841036E-2,-5.426894E-2,6.4162253E-3,1.5508941E-3,-5.9529066E-2,5.450859E-2,-3.8377285E-2,-6.593087E-2,3.925292E-2,-7.490855E-3,9.696115E-3,-1.2080073E-3,-3.1791784E-2,1.6219774E-2,-2.887392E-2,5.252276E-3,-1.4999935E-3,3.373726E-2,-3.4899712E-3,-3.582692E-2,-7.3121786E-3,-6.7029595E-3,2.8568268E-2,-2.1513314E-3,1.00142015E-2,6.1136305E-2,1.0681497E-2,-1.640606E-2,-4.5404136E-2,2.4440765E-2,4.9989223E-3,-4.29455E-3,1.796447E-2,3.184831E-3,4.2721868E-2],"categories":[],"categories_nodes":[],"categories_segments":[],"categories_sizes":[],"default_left":[0,0,0,0,0,0,0,0,0,0,0,0,0,0,0,0,0,0,0,0,0,0,0,0,0,0,0,0,0,0,0,0,0,0,0,0,0,0,0,0,0,0,0,0,0,0,0,0,0,0,0,0,0,0,0],"id":33,"left_children":[1,3,5,7,9,11,13,15,17,19,21,23,25,27,29,31,33,-1,-1,35,37,39,41,43,-1,45,-1,47,49,51,53,-1,-1,-1,-1,-1,-1,-1,-1,-1,-1,-1,-1,-1,-1,-1,-1,-1,-1,-1,-1,-1,-1,-1,-1],"loss_changes":[9.459368E-3,1.8525917E-2,1.6885601E-2,1.2238703E-2,1.6074542E-2,3.400538E-2,3.6813907E-2,6.671682E-3,1.2294203E-4,1.692834E-2,1.6918018E-2,2.8769772E-2,5.804132E-2,2.5178693E-2,2.2516502E-2,1.0783143E-2,1.2088801E-2,0E0,0E0,1.368004E-2,5.5867564E-3,5.155064E-3,1.0819821E-2,1.9338505E-2,0E0,5.3539865E-2,0E0,9.379014E-3,3.5634777E-4,1.7332338E-2,2.3896929E-2,0E0,0E0,0E0,0E0,0E0,0E0,0E0,0E0,0E0,0E0,0E0,0E0,0E0,0E0,0E0,0E0,0E0,0E0,0E0,0E0,0E0,0E0,0E0,0E0],"parents":[2147483647,0,0,1,1,2,2,3,3,4,4,5,5,6,6,7,7,8,8,9,9,10,10,11,11,12,12,13,13,14,14,15,15,16,16,19,19,20,20,21,21,22,22,23,23,25,25,27,27,28,28,29,29,30,30],"right_children":[2,4,6,8,10,12,14,16,18,20,22,24,26,28,30,32,34,-1,-1,36,38,40,42,44,-1,46,-1,48,50,52,54,-1,-1,-1,-1,-1,-1,-1,-1,-1,-1,-1,-1,-1,-1,-1,-1,-1,-1,-1,-1,-1,-1,-1,-1],"split_conditions":[1.41212E2,1.35E0,1.49E0,1E0,1E0,1.42E0,1.54E0,1E0,6E0,1E0,1E0,1.41E0,1.2E1,1E0,1.2E1,1.252E0,1.34E0,-1.3276339E-2,-5.052948E-2,2.65E0,1E0,1E0,1E0,1E0,-5.9529066E-2,1.44E0,-3.8377285E-2,1.5E0,8E0,1.7623257E2,1E0,-1.2080073E-3,-3.1791784E-2,1.6219774E-2,-2.887392E-2,5.252276E-3,-1.4999935E-3,3.373726E-2,-3.4899712E-3,-3.582692E-2,-7.3121786E-3,-6.7029595E-3,2.8568268E-2,-2.1513314E-3,1.00142015E-2,6.1136305E-2,1.0681497E-2,-1.640606E-2,-4.5404136E-2,2.4440765E-2,4.9989223E-3,-4.29455E-3,1.796447E-2,3.184831E-3,4.2721868E-2],"split_indices":[4,1,1,23,2,1,1,30,0,28,26,1,0,2,0,1,1,0,0,1,17,11,9,26,0,1,0,1,0,4,34,0,0,0,0,0,0,0,0,0,0,0,0,0,0,0,0,0,0,0,0,0,0,0,0],"split_type":[0,0,0,0,0,0,0,0,0,0,0,0,0,0,0,0,0,0,0,0,0,0,0,0,0,0,0,0,0,0,0,0,0,0,0,0,0,0,0,0,0,0,0,0,0,0,0,0,0,0,0,0,0,0,0],"sum_hessian":[1.054E3,3.81E2,6.73E2,1.9E1,3.62E2,2.05E2,4.68E2,1.7E1,2E0,3.45E2,1.7E1,1.78E2,2.7E1,1.6E1,4.52E2,1.1E1,6E0,1E0,1E0,3.39E2,6E0,8E0,9E0,1.77E2,1E0,2.4E1,3E0,1.4E1,2E0,3.56E2,9.6E1,7E0,4E0,5E0,1E0,2.28E2,1.11E2,5E0,1E0,5E0,3E0,7E0,2E0,1.35E2,4.2E1,7E0,1.7E1,7E0,7E0,1E0,1E0,3.48E2,8E0,9.3E1,3E0],"tree_param":{"num_deleted":"0","num_feature":"43","num_nodes":"55","size_leaf_vector":"1"}},{"base_weights":[-7.7671575E-5,-1.7753171E-3,4.1808006E-3,-1.1265745E-3,-2.5560284E-2,2.0609107E-2,8.261213E-4,-2.403468E-3,8.303317E-3,-1.0466174E-2,-7.808709E-2,4.2696506E-2,-2.225648E-2,3.1532415E-3,-1.8597143E-2,3.949203E-4,-1.0353889E-2,2.9700907E-2,-1.280329E-2,-3.8175322E-2,2.456347E-2,6.252273E-2,-8.480015E-2,-5.398589E-2,5.0199986E-2,6.7464255E-2,1.6839731E-3,-2.004774E-3,-5.155913E-2,-2.1165259E-4,3.262083E-2,-6.87088E-4,-1.3536219E-2,9.889553E-3,4.462123E-2,-2.3105932E-2,1.0580975E-2,-8.69788E-3,-4.389445E-2,1.8699987E-2,-6.788095E-3,1.2807497E-2,4.660803E-2,9.141922E-3,-5.7571054E-2,-3.454574E-2,3.1820297E-2,-1.19280815E-2,3.4891225E-2,7.628282E-3,4.859193E-2,3.512112E-3,-3.2334544E-3,3.638241E-3,-4.2266846E-2,-2.8600872E-2,-1.604557E-3],"categories":[],"categories_nodes":[],"categories_segments":[],"categories_sizes":[],"default_left":[0,0,0,0,0,0,0,0,0,0,0,0,0,0,0,0,0,0,0,0,0,0,0,0,0,0,0,0,0,0,0,0,0,0,0,0,0,0,0,0,0,0,0,0,0,0,0,0,0,0,0,0,0,0,0,0,0],"id":34,"left_children":[1,3,5,7,9,11,13,15,17,19,-1,21,23,25,27,29,31,33,35,37,39,41,43,45,47,49,51,53,55,-1,-1,-1,-1,-1,-1,-1,-1,-1,-1,-1,-1,-1,-1,-1,-1,-1,-1,-1,-1,-1,-1,-1,-1,-1,-1,-1,-1],"loss_changes":[7.6344144E-3,1.1621099E-2,1.6571596E-2,8.882109E-3,3.779546E-2,4.9236525E-2,1.1403909E-2,1.4443279E-2,4.0123753E-2,1.937991E-2,0E0,9.124637E-2,4.4092104E-2,2.1146674E-2,1.4663408E-2,2.5549116E-2,2.5334388E-2,2.4228279E-2,5.2040797E-2,9.813277E-3,4.9139676E-3,3.1596914E-2,1.774409E-2,2.7495652E-2,1.0365951E-2,6.27527E-3,9.665059E-3,1.51685765E-2,2.2718161E-3,0E0,0E0,0E0,0E0,0E0,0E0,0E0,0E0,0E0,0E0,0E0,0E0,0E0,0E0,0E0,0E0,0E0,0E0,0E0,0E0,0E0,0E0,0E0,0E0,0E0,0E0,0E0,0E0],"parents":[2147483647,0,0,1,1,2,2,3,3,4,4,5,5,6,6,7,7,8,8,9,9,11,11,12,12,13,13,14,14,15,15,16,16,17,17,18,18,19,19,20,20,21,21,22,22,23,23,24,24,25,25,26,26,27,27,28,28],"right_children":[2,4,6,8,10,12,14,16,18,20,-1,22,24,26,28,30,32,34,36,38,40,42,44,46,48,50,52,54,56,-1,-1,-1,-1,-1,-1,-1,-1,-1,-1,-1,-1,-1,-1,-1,-1,-1,-1,-1,-1,-1,-1,-1,-1,-1,-1,-1,-1],"split_conditions":[2.3E0,2.23E0,2.4E0,1E0,1E0,1E0,1E0,2.03E0,1.2733568E2,1E0,-7.808709E-2,1E0,1E0,1.0611306E2,1E3,2.02E0,1E0,1.1782653E2,2.02E0,1.0611306E2,1E0,5E2,8.0936554E1,1E0,3.2E1,1E0,1E0,1E0,2.83E0,-2.1165259E-4,3.262083E-2,-6.87088E-4,-1.3536219E-2,9.889553E-3,4.462123E-2,-2.3105932E-2,1.0580975E-2,-8.69788E-3,-4.389445E-2,1.8699987E-2,-6.788095E-3,1.2807497E-2,4.660803E-2,9.141922E-3,-5.7571054E-2,-3.454574E-2,3.1820297E-2,-1.19280815E-2,3.4891225E-2,7.628282E-3,4.859193E-2,3.512112E-3,-3.2334544E-3,3.638241E-3,-4.2266846E-2,-2.8600872E-2,-1.604557E-3],"split_indices":[1,1,1,33,32,11,38,1,4,39,0,41,35,4,5,1,35,4,1,4,34,5,4,41,5,34,3,11,1,0,0,0,0,0,0,0,0,0,0,0,0,0,0,0,0,0,0,0,0,0,0,0,0,0,0,0,0],"split_type":[0,0,0,0,0,0,0,0,0,0,0,0,0,0,0,0,0,0,0,0,0,0,0,0,0,0,0,0,0,0,0,0,0,0,0,0,0,0,0,0,0,0,0,0,0,0,0,0,0,0,0,0,0,0,0,0,0],"sum_hessian":[1.054E3,7.54E2,3E2,7.35E2,1.9E1,5E1,2.5E2,6.48E2,8.7E1,1.8E1,1E0,3.3E1,1.7E1,2.24E2,2.6E1,4.8E2,1.68E2,4.3E1,4.4E1,1E1,8E0,2.9E1,4E0,1.2E1,5E0,4E0,2.2E2,1.8E1,8E0,4.75E2,5E0,1.1E2,5.8E1,3.8E1,5E0,2.2E1,2.2E1,8E0,2E0,6E0,2E0,1.4E1,1.5E1,1E0,3E0,1.1E1,1E0,1E0,4E0,2E0,2E0,1.33E2,8.7E1,1.7E1,1E0,7E0,1E0],"tree_param":{"num_deleted":"0","num_feature":"43","num_nodes":"57","size_leaf_vector":"1"}},{"base_weights":[-7.648468E-5,5.7518424E-5,-4.708608E-2,2.5200844E-2,-3.82476E-5,-3.194189E-2,-3.3726692E-3,-1.8581059E-3,2.5271322E-3,-5.7420055E-3,7.5814617E-3,1.4870813E-2,-1.4707559E-3,-1.4743916E-3,-1.3651285E-2,1.2207279E-2,-2.7651319E-3,4.8301583E-3,3.526698E-2,-8.110802E-3,1.9689351E-3],"categories":[],"categories_nodes":[],"categories_segments":[],"categories_sizes":[],"default_left":[0,0,0,0,0,0,0,0,0,0,0,0,0,0,0,0,0,0,0,0,0],"id":35,"left_children":[1,3,5,-1,7,-1,-1,9,11,13,15,17,19,-1,-1,-1,-1,-1,-1,-1,-1],"loss_changes":[6.6486085E-3,5.0787157E-3,1.6019777E-3,0E0,4.916092E-3,0E0,0E0,2.2627529E-2,2.1587232E-2,2.6237134E-2,3.986299E-2,3.0352116E-2,2.6471663E-2,0E0,0E0,0E0,0E0,0E0,0E0,0E0,0E0],"parents":[2147483647,0,0,1,1,2,2,4,4,7,7,8,8,9,9,10,10,11,11,12,12],"right_children":[2,4,6,-1,8,-1,-1,10,12,14,16,18,20,-1,-1,-1,-1,-1,-1,-1,-1],"split_conditions":[1E0,2E0,6E0,2.5200844E-2,2.17E0,-3.194189E-2,-3.3726692E-3,1E0,6E0,2.1E0,1.5848253E2,1E0,8E0,-1.4743916E-3,-1.3651285E-2,1.2207279E-2,-2.7651319E-3,4.8301583E-3,3.526698E-2,-8.110802E-3,1.9689351E-3],"split_indices":[12,0,0,0,1,0,0,3,0,1,4,3,6,0,0,0,0,0,0,0,0],"split_type":[0,0,0,0,0,0,0,0,0,0,0,0,0,0,0,0,0,0,0,0,0],"sum_hessian":[1.054E3,1.052E3,2E0,1E0,1.051E3,1E0,1E0,6.15E2,4.36E2,4.36E2,1.79E2,1.06E2,3.3E2,3.87E2,4.9E1,7.8E1,1.01E2,9.8E1,8E0,8.8E1,2.42E2],"tree_param":{"num_deleted":"0","num_feature":"43","num_nodes":"21","size_leaf_vector":"1"}},{"base_weights":[-2.1170667E-5,-7.9870893E-4,5.666658E-3,-1.91319E-3,1.0583992E-2,1.12167895E-2,-9.242739E-3,-1.1025189E-2,8.107809E-4,4.560075E-2,-5.2411854E-4,2.7492842E-2,-2.1449602E-3,2.4487443E-2,-4.2459436E-2,-2.772479E-2,-1.0244091E-3,2.404356E-2,-1.1138048E-3,6.1061807E-2,-3.1182924E-2,-4.0540225E-3,5.343795E-2,3.8863808E-2,-2.5691748E-2,-1.9836625E-2,1.2570381E-2,-7.907391E-3,4.582119E-2,-7.745528E-2,-1.3147961E-2,-4.4364515E-3,-2.8852787E-2,-1.1623692E-2,8.948497E-3,8.688592E-3,4.8181295E-2,2.047833E-3,-2.6405838E-3,3.6407053E-2,-1.0985534E-2,8.243713E-3,-7.6252343E-3,3.0145645E-2,8.2194805E-3,2.7274076E-2,1.1392493E-2,3.256321E-3,-2.3158455E-2,1.1153782E-3,-3.2125115E-2,6.349087E-4,1.6957235E-2,5.423188E-3,-1.0664463E-2,2.7977519E-2,7.2956085E-5,-6.757816E-2,-1.7847776E-2,-1.518774E-2,1.2297034E-2],"categories":[],"categories_nodes":[],"categories_segments":[],"categories_sizes":[],"default_left":[0,0,0,0,0,0,0,0,0,0,0,0,0,0,0,0,0,0,0,0,0,0,0,0,0,0,0,0,0,0,0,0,0,0,0,0,0,0,0,0,0,0,0,0,0,0,0,0,0,0,0,0,0,0,0,0,0,0,0,0,0],"id":36,"left_children":[1,3,5,7,9,11,13,15,17,19,21,23,25,27,29,31,33,35,37,39,-1,41,43,45,47,49,51,53,55,57,59,-1,-1,-1,-1,-1,-1,-1,-1,-1,-1,-1,-1,-1,-1,-1,-1,-1,-1,-1,-1,-1,-1,-1,-1,-1,-1,-1,-1,-1,-1],"loss_changes":[4.670268E-3,1.1805362E-2,1.061281E-2,2.1032173E-2,3.2308415E-2,2.0284288E-2,4.0253904E-2,3.2538358E-2,2.9224679E-2,3.7193723E-2,1.2407417E-2,2.6398413E-2,1.3786975E-2,1.28021855E-2,1.7445657E-2,4.0747162E-2,5.2136313E-2,2.2430785E-2,1.3134321E-2,1.9164696E-2,0E0,1.4280904E-2,2.3141503E-5,7.583622E-3,5.6154113E-3,2.3665532E-2,6.951743E-3,2.2449763E-3,5.0833654E-3,1.4452156E-2,7.899274E-3,0E0,0E0,0E0,0E0,0E0,0E0,0E0,0E0,0E0,0E0,0E0,0E0,0E0,0E0,0E0,0E0,0E0,0E0,0E0,0E0,0E0,0E0,0E0,0E0,0E0,0E0,0E0,0E0,0E0,0E0],"parents":[2147483647,0,0,1,1,2,2,3,3,4,4,5,5,6,6,7,7,8,8,9,9,10,10,11,11,12,12,13,13,14,14,15,15,16,16,17,17,18,18,19,19,21,21,22,22,23,23,24,24,25,25,26,26,27,27,28,28,29,29,30,30],"right_children":[2,4,6,8,10,12,14,16,18,20,22,24,26,28,30,32,34,36,38,40,-1,42,44,46,48,50,52,54,56,58,60,-1,-1,-1,-1,-1,-1,-1,-1,-1,-1,-1,-1,-1,-1,-1,-1,-1,-1,-1,-1,-1,-1,-1,-1,-1,-1,-1,-1,-1,-1],"split_conditions":[1E0,1E0,1E0,6E0,1.119352E2,6E0,1.87E0,1.0611306E2,1.0798565E2,6E0,2.23E0,1E0,1E0,1.27E0,2.13E0,1E0,1.87E0,1E0,1.91E0,2.43E0,-3.1182924E-2,1.252E0,1.4686047E2,1E3,1E0,1E0,1E0,1.21E0,8E0,1E3,1E3,-4.4364515E-3,-2.8852787E-2,-1.1623692E-2,8.948497E-3,8.688592E-3,4.8181295E-2,2.047833E-3,-2.6405838E-3,3.6407053E-2,-1.0985534E-2,8.243713E-3,-7.6252343E-3,3.0145645E-2,8.2194805E-3,2.7274076E-2,1.1392493E-2,3.256321E-3,-2.3158455E-2,1.1153782E-3,-3.2125115E-2,6.349087E-4,1.6957235E-2,5.423188E-3,-1.0664463E-2,2.7977519E-2,7.2956085E-5,-6.757816E-2,-1.7847776E-2,-1.518774E-2,1.2297034E-2],"split_indices":[41,36,36,0,4,0,1,4,4,0,1,14,39,1,1,34,1,23,1,1,0,1,4,5,33,17,3,1,6,5,5,0,0,0,0,0,0,0,0,0,0,0,0,0,0,0,0,0,0,0,0,0,0,0,0,0,0,0,0,0,0],"split_type":[0,0,0,0,0,0,0,0,0,0,0,0,0,0,0,0,0,0,0,0,0,0,0,0,0,0,0,0,0,0,0,0,0,0,0,0,0,0,0,0,0,0,0,0,0,0,0,0,0,0,0,0,0,0,0,0,0,0,0,0,0],"sum_hessian":[1.054E3,9.28E2,1.26E2,8.46E2,8.2E1,9.2E1,3.4E1,1.94E2,6.52E2,1.9E1,6.3E1,4.1E1,5.1E1,1.7E1,1.7E1,7.2E1,1.22E2,4.9E1,6.03E2,1.7E1,2E0,6E1,3E0,3.4E1,7E0,2.3E1,2.8E1,7E0,1E1,7E0,1E1,4.5E1,2.7E1,5.6E1,6.6E1,4.6E1,3E0,2.68E2,3.35E2,1.5E1,2E0,2.1E1,3.9E1,2E0,1E0,1.6E1,1.8E1,3E0,4E0,1.6E1,7E0,1.9E1,9E0,3E0,4E0,8E0,2E0,2E0,5E0,7E0,3E0],"tree_param":{"num_deleted":"0","num_feature":"43","num_nodes":"61","size_leaf_vector":"1"}},{"base_weights":[-1.6780148E-5,-2.417953E-4,1.8037649E-2,-4.1686615E-4,2.2460103E-2,-8.3327293E-4,4.0192604E-2,2.1806479E-2,-5.0154515E-4,-4.419327E-3,1.6078234E-2,1.5373612E-2,-1.044178E-2,6.652991E-3,2.515471E-2,-2.9406263E-4,-1.6790243E-2,3.3824444E-3,-6.6969395E-3,9.346485E-3,5.2404404E-4,-4.5733323E-4,5.0236355E-3,-2.9279947E-2,7.9832075E-4],"categories":[],"categories_nodes":[],"categories_segments":[],"categories_sizes":[],"default_left":[0,0,0,0,0,0,0,0,0,0,0,0,0,0,0,0,0,0,0,0,0,0,0,0,0],"id":37,"left_children":[1,3,5,7,9,11,13,-1,15,17,-1,19,-1,-1,-1,21,23,-1,-1,-1,-1,-1,-1,-1,-1],"loss_changes":[4.29032E-3,4.1547045E-3,5.468589E-3,3.8844987E-3,2.2271718E-3,2.9206772E-3,9.6262526E-4,0E0,3.4929696E-3,3.917281E-4,0E0,2.1816592E-4,0E0,0E0,0E0,6.5746726E-3,1.0077679E-2,0E0,0E0,0E0,0E0,0E0,0E0,0E0,0E0],"parents":[2147483647,0,0,1,1,2,2,3,3,4,4,5,5,6,6,8,8,9,9,11,11,15,15,16,16],"right_children":[2,4,6,8,10,12,14,-1,16,18,-1,20,-1,-1,-1,22,24,-1,-1,-1,-1,-1,-1,-1,-1],"split_conditions":[1E3,1E0,1E0,2E0,9.1E-1,2.4E1,1.31E0,2.1806479E-2,3.2E1,1.2E1,1.6078234E-2,2.07E0,-1.044178E-2,6.652991E-3,2.515471E-2,3.2E0,3.6E0,3.3824444E-3,-6.6969395E-3,9.346485E-3,5.2404404E-4,-4.5733323E-4,5.0236355E-3,-2.9279947E-2,7.9832075E-4],"split_indices":[6,22,3,0,1,0,1,0,0,0,0,1,0,0,0,1,1,0,0,0,0,0,0,0,0],"split_type":[0,0,0,0,0,0,0,0,0,0,0,0,0,0,0,0,0,0,0,0,0,0,0,0,0],"sum_hessian":[1.054E3,1.042E3,1.2E1,1.035E3,7E0,7E0,5E0,1E0,1.034E3,2E0,5E0,4E0,3E0,2E0,3E0,1.022E3,1.2E1,1E0,1E0,3E0,1E0,9.65E2,5.7E1,3E0,9E0],"tree_param":{"num_deleted":"0","num_feature":"43","num_nodes":"25","size_leaf_vector":"1"}},{"base_weights":[3.169182E-5,-1.9544363E-2,1.0589404E-4,6.0515996E-4,-5.5207876E-3,-1.7232895E-2,7.903427E-4,6.1059264E-3,-1.3619629E-2,-2.299542E-2,8.657455E-3,1.3300087E-3,-5.162609E-3,-7.637914E-3,6.413583E-2,-9.229374E-3,-5.828309E-2,3.959974E-3,-1.64799E-2,3.9763533E-4,1.4230251E-2,4.1374457E-3,-7.3867557E-3,3.4176281E-3,-1.863389E-2,1.3493657E-2,4.262519E-2,-4.4255257E-2,-2.9025273E-3],"categories":[],"categories_nodes":[],"categories_segments":[],"categories_sizes":[],"default_left":[0,0,0,0,0,0,0,0,0,0,0,0,0,0,0,0,0,0,0,0,0,0,0,0,0,0,0,0,0],"id":38,"left_children":[1,-1,3,5,7,9,11,13,15,17,-1,19,21,23,25,27,-1,-1,-1,-1,-1,-1,-1,-1,-1,-1,-1,-1,-1],"loss_changes":[3.0666166E-3,0E0,2.9642486E-3,3.214517E-3,8.181171E-3,2.3889889E-3,3.090968E-3,2.9201794E-2,2.197421E-2,3.0335127E-3,0E0,1.2758656E-2,1.045397E-2,1.3119878E-2,3.18994E-3,1.3060391E-2,0E0,0E0,0E0,0E0,0E0,0E0,0E0,0E0,0E0,0E0,0E0,0E0,0E0],"parents":[2147483647,0,0,2,2,3,3,4,4,5,5,6,6,7,7,8,8,9,9,11,11,12,12,13,13,14,14,15,15],"right_children":[2,-1,4,6,8,10,12,14,16,18,-1,20,22,24,26,28,-1,-1,-1,-1,-1,-1,-1,-1,-1,-1,-1,-1,-1],"split_conditions":[6.9E-1,-1.9544363E-2,1E0,4E0,1.1782653E2,1E0,2.2084282E2,3.2E1,1E0,1.11E0,8.657455E-3,2.0980069E2,1.3E0,1E0,1E0,1.1972321E2,-5.828309E-2,3.959974E-3,-1.64799E-2,3.9763533E-4,1.4230251E-2,4.1374457E-3,-7.3867557E-3,3.4176281E-3,-1.863389E-2,1.3493657E-2,4.262519E-2,-4.4255257E-2,-2.9025273E-3],"split_indices":[1,0,7,0,4,17,4,6,32,1,0,4,1,33,32,4,0,0,0,0,0,0,0,0,0,0,0,0,0],"split_type":[0,0,0,0,0,0,0,0,0,0,0,0,0,0,0,0,0,0,0,0,0,0,0,0,0,0,0,0,0],